{
  "features_info":
    {
      "float_features":
        [
          {
            "borders":
              [
                0.86629998683929443,
                1.0146499872207642,
                1.124000072479248,
                1.198199987411499,
                1.2537000179290771,
                1.3724499940872192,
                1.4139499664306641,
                1.4628499746322632,
                1.4915000200271606,
                1.5315999984741211,
                1.5703999996185303,
                1.6258499622344971,
                1.676800012588501,
                1.6967500448226929,
                1.7191998958587646,
                1.760200023651123,
                1.8157000541687012,
                1.892300009727478,
                1.9112999439239502,
                1.9336999654769897,
                1.9529500007629395,
                1.9736499786376953,
                1.9934499263763428,
                2.0133500099182129,
                2.0692000389099121,
                2.1096999645233154,
                2.1257500648498535,
                2.1435999870300293,
                2.1567001342773438,
                2.1739499568939209,
                2.2168002128601074,
                2.2472500801086426,
                2.2645001411437988,
                2.2852001190185547,
                2.3008499145507813,
                2.3172001838684082,
                2.3326001167297363,
                2.3468499183654785,
                2.3655500411987305,
                2.4370999336242676,
                2.4551999568939209,
                2.5222001075744629,
                2.5384001731872559,
                2.5514001846313477,
                2.5888500213623047,
                2.6027998924255371,
                2.616300106048584,
                2.6289000511169434,
                2.6437997817993164,
                2.6597499847412109,
                2.6725001335144043,
                2.6869499683380127,
                2.7000999450683594,
                2.7140998840332031,
                2.7287998199462891,
                2.7632999420166016,
                2.780750036239624,
                2.8003499507904053,
                2.8337500095367432,
                2.8856501579284668,
                2.9040999412536621,
                2.9379501342773438,
                2.9556498527526855,
                3.0168499946594238,
                3.0412998199462891,
                3.0539000034332275,
                3.0686001777648926,
                3.0830001831054688,
                3.0940499305725098,
                3.1090500354766846,
                3.1242499351501465,
                3.1362500190734863,
                3.1483500003814697,
                3.1605000495910645,
                3.1721501350402832,
                3.1838998794555664,
                3.2086501121520996,
                3.2227001190185547,
                3.2354001998901367,
                3.2491998672485352,
                3.2640500068664551,
                3.294450044631958,
                3.3152499198913574,
                3.334050178527832,
                3.350600004196167,
                3.3677000999450684,
                3.3832001686096191,
                3.3979001045227051,
                3.4146499633789063,
                3.473599910736084,
                3.5083999633789063,
                3.521049976348877,
                3.5348000526428223,
                3.5501999855041504,
                3.5630998611450195,
                3.5785000324249268,
                3.5934500694274902,
                3.6366500854492188,
                3.6496000289916992,
                3.6626999378204346,
                3.6770000457763672,
                3.6914501190185547,
                3.7238998413085938,
                3.7561001777648926,
                3.7755000591278076,
                3.7923998832702637,
                3.8548500537872314,
                3.8740999698638916,
                3.890200138092041,
                3.9103000164031982,
                3.9331998825073242,
                3.9536499977111816,
                3.9724500179290771,
                3.9919500350952148,
                4.0497503280639648,
                4.0627999305725098,
                4.0799503326416016,
                4.0970001220703125,
                4.1152496337890625,
                4.1299495697021484,
                4.1798496246337891,
                4.2008500099182129,
                4.2161998748779297,
                4.2338500022888184,
                4.250999927520752,
                4.2725000381469727,
                4.2942500114440918,
                4.3208503723144531,
                4.3869500160217285,
                4.4370999336242676,
                4.458899974822998,
                4.5104999542236328,
                4.5764999389648438,
                4.6021003723144531,
                4.626349925994873,
                4.6479997634887695,
                4.6722497940063477,
                4.7434000968933105,
                4.7743997573852539,
                4.8004999160766602,
                4.8577003479003906,
                4.9193496704101563,
                4.9554500579833984,
                5.0429000854492188,
                5.0683498382568359,
                5.0875997543334961,
                5.1159000396728516,
                5.1441001892089844,
                5.1719503402709961,
                5.2045998573303223,
                5.2360000610351563,
                5.2637500762939453,
                5.2944002151489258,
                5.3662500381469727,
                5.4031500816345215,
                5.4463996887207031,
                5.489799976348877,
                5.5587501525878906,
                5.5928497314453125,
                5.6345500946044922,
                5.675999641418457,
                5.8310003280639648,
                5.8846502304077148,
                5.9530496597290039,
                6.0156002044677734,
                6.0606498718261719,
                6.100250244140625,
                6.1419501304626465,
                6.1951503753662109,
                6.2500500679016113,
                6.3131499290466309,
                6.3754997253417969,
                6.4598498344421387,
                6.5380001068115234,
                6.6123499870300293,
                6.6837501525878906,
                6.8678503036499023,
                6.9819998741149902,
                7.1343998908996582,
                7.2744503021240234,
                7.587399959564209,
                7.7543001174926758,
                7.9130001068115234,
                8.1085491180419922,
                8.3230495452880859,
                8.5947494506835938,
                9.0254993438720703,
                9.8120994567871094,
                10.344150543212891
              ],
            "feature_id":"",
            "feature_index":0,
            "flat_feature_index":0,
            "has_nans":false,
            "nan_value_treatment":"AsIs"
          },
          {
            "borders":
              [
                2.5,
                3.5,
                4.5,
                5.5,
                6.5,
                7.5,
                8.5,
                9.5,
                10.5,
                11.5,
                12.5,
                13.5,
                14.5,
                15.5,
                16.5,
                17.5,
                18.5,
                19.5,
                20.5,
                21.5,
                22.5,
                23.5,
                24.5,
                25.5,
                26.5,
                27.5,
                28.5,
                29.5,
                30.5,
                31.5,
                32.5,
                33.5,
                34.5,
                35.5,
                36.5,
                37.5,
                38.5,
                39.5,
                41.5,
                42.5,
                43.5,
                44.5,
                45.5,
                46.5,
                47.5,
                48.5,
                49.5,
                50.5,
                51.5
              ],
            "feature_id":"",
            "feature_index":1,
            "flat_feature_index":1,
            "has_nans":false,
            "nan_value_treatment":"AsIs"
          },
          {
            "borders":
              [
                2.2333204746246338,
                2.4927339553833008,
                2.6602866649627686,
                2.8007781505584717,
                2.9218525886535645,
                3.0425007343292236,
                3.1240673065185547,
                3.1915059089660645,
                3.2478642463684082,
                3.3028373718261719,
                3.3560638427734375,
                3.4041919708251953,
                3.441619873046875,
                3.4782869815826416,
                3.5123944282531738,
                3.5508620738983154,
                3.5861310958862305,
                3.6434144973754883,
                3.6643438339233398,
                3.6866147518157959,
                3.733795166015625,
                3.7547469139099121,
                3.7784953117370605,
                3.8232111930847168,
                3.8446176052093506,
                3.8885149955749512,
                3.9069786071777344,
                4.024540901184082,
                4.0429120063781738,
                4.0767498016357422,
                4.114750862121582,
                4.1358318328857422,
                4.1496953964233398,
                4.1672153472900391,
                4.1819415092468262,
                4.2007236480712891,
                4.2440366744995117,
                4.3065519332885742,
                4.3204059600830078,
                4.3330888748168945,
                4.3454799652099609,
                4.4124984741210938,
                4.4268503189086914,
                4.4406838417053223,
                4.4554042816162109,
                4.508819580078125,
                4.520993709564209,
                4.5339431762695313,
                4.5479030609130859,
                4.5611095428466797,
                4.5748367309570313,
                4.6503114700317383,
                4.6928091049194336,
                4.7064085006713867,
                4.7298345565795898,
                4.7415904998779297,
                4.7564582824707031,
                4.8177652359008789,
                4.8433537483215332,
                4.8932895660400391,
                4.9034271240234375,
                4.9287014007568359,
                4.9501924514770508,
                4.974980354309082,
                4.984889030456543,
                5.0094413757324219,
                5.0448179244995117,
                5.0569114685058594,
                5.1239485740661621,
                5.1672043800354004,
                5.2042465209960938,
                5.2183370590209961,
                5.2652440071105957,
                5.2766728401184082,
                5.2890100479125977,
                5.3254942893981934,
                5.3456497192382813,
                5.3552074432373047,
                5.3657064437866211,
                5.3762712478637695,
                5.4133281707763672,
                5.4250349998474121,
                5.4367451667785645,
                5.4698104858398438,
                5.4817185401916504,
                5.4902057647705078,
                5.5008506774902344,
                5.5111322402954102,
                5.5509204864501953,
                5.5634579658508301,
                5.588557243347168,
                5.6136584281921387,
                5.6382665634155273,
                5.7332653999328613,
                5.7432966232299805,
                5.7572407722473145,
                5.7812066078186035,
                5.8094110488891602,
                5.8221540451049805,
                5.8381547927856445,
                5.8647289276123047,
                5.9164156913757324,
                5.9330883026123047,
                5.9452304840087891,
                5.957188606262207,
                5.9866518974304199,
                6.002439022064209,
                6.0171494483947754,
                6.0715503692626953,
                6.0899219512939453,
                6.1011571884155273,
                6.1301298141479492,
                6.1475281715393066,
                6.1968441009521484,
                6.2150464057922363,
                6.2309484481811523,
                6.2899112701416016,
                6.309844970703125,
                6.3300662040710449,
                6.3479747772216797,
                6.3679623603820801,
                6.4106855392456055,
                6.4773244857788086,
                6.5031013488769531,
                6.5292577743530273,
                6.5518522262573242,
                6.5736026763916016,
                6.6076741218566895,
                6.6384382247924805,
                6.6654019355773926,
                6.693108081817627,
                6.7256779670715332,
                6.7901391983032227,
                6.8298006057739258,
                6.8688335418701172,
                6.8997993469238281,
                6.9408950805664063,
                6.9827003479003906,
                7.0234832763671875,
                7.2443695068359375,
                7.2918434143066406,
                7.3439655303955078,
                7.4742794036865234,
                7.5488138198852539,
                7.6246929168701172,
                7.7037653923034668,
                7.8182353973388672,
                7.9057903289794922,
                7.994992733001709,
                8.2600383758544922,
                8.6558742523193359,
                8.974609375,
                9.7815704345703125,
                11.382307052612305,
                18.42437744140625
              ],
            "feature_id":"",
            "feature_index":2,
            "flat_feature_index":2,
            "has_nans":false,
            "nan_value_treatment":"AsIs"
          },
          {
            "borders":
              [
                0.81103825569152832,
                0.85658347606658936,
                0.88008511066436768,
                0.89273864030838013,
                0.90254694223403931,
                0.9213787317276001,
                0.92613726854324341,
                0.92974388599395752,
                0.93951797485351563,
                0.9422878623008728,
                0.94756919145584106,
                0.95012545585632324,
                0.95812934637069702,
                0.9635581374168396,
                0.96812170743942261,
                0.96966993808746338,
                0.9711151123046875,
                0.9723588228225708,
                0.97630733251571655,
                0.97771173715591431,
                0.97903144359588623,
                0.98040962219238281,
                0.98558008670806885,
                0.98679554462432861,
                0.98773759603500366,
                0.98855400085449219,
                0.98968005180358887,
                0.99064326286315918,
                0.99171841144561768,
                0.99263346195220947,
                0.99336647987365723,
                0.99412626028060913,
                0.99478828907012939,
                0.99719488620758057,
                0.99960756301879883,
                1.0041408538818359,
                1.0050146579742432,
                1.0074954032897949,
                1.0129519701004028,
                1.0136665105819702,
                1.0144658088684082,
                1.0179564952850342,
                1.0201478004455566,
                1.0228770971298218,
                1.0242562294006348,
                1.0262091159820557,
                1.0268027782440186,
                1.027353048324585,
                1.0281441211700439,
                1.0288355350494385,
                1.030055046081543,
                1.0308632850646973,
                1.0321395397186279,
                1.0327997207641602,
                1.0359649658203125,
                1.037010669708252,
                1.0376635789871216,
                1.0394124984741211,
                1.0427491664886475,
                1.043410062789917,
                1.0454373359680176,
                1.0467509031295776,
                1.0501080751419067,
                1.0507670640945435,
                1.0532870292663574,
                1.0544285774230957,
                1.0557143688201904,
                1.0565462112426758,
                1.0585856437683105,
                1.0598323345184326,
                1.0603957176208496,
                1.0610125064849854,
                1.0644996166229248,
                1.0662195682525635,
                1.06700599193573,
                1.0685904026031494,
                1.0700194835662842,
                1.070908784866333,
                1.0732095241546631,
                1.0772473812103271,
                1.0781388282775879,
                1.07874596118927,
                1.0803971290588379,
                1.0822081565856934,
                1.083113431930542,
                1.0839443206787109,
                1.0848443508148193,
                1.0859024524688721,
                1.0877058506011963,
                1.0886030197143555,
                1.0896178483963013,
                1.0905585289001465,
                1.0914053916931152,
                1.0943751335144043,
                1.0973567962646484,
                1.0984218120574951,
                1.1004586219787598,
                1.1015989780426025,
                1.1041176319122314,
                1.1056187152862549,
                1.1076521873474121,
                1.1088743209838867,
                1.1128745079040527,
                1.1143431663513184,
                1.11562180519104,
                1.1172287464141846,
                1.1187357902526855,
                1.1205146312713623,
                1.1289025545120239,
                1.1308052539825439,
                1.1324238777160645,
                1.1345160007476807,
                1.1366786956787109,
                1.1401350498199463,
                1.1427934169769287,
                1.145190954208374,
                1.1475064754486084,
                1.1497354507446289,
                1.1526213884353638,
                1.1551647186279297,
                1.1583781242370605,
                1.1616463661193848,
                1.1655230522155762,
                1.1687347888946533,
                1.1715528964996338,
                1.1746649742126465,
                1.1794297695159912,
                1.1846687793731689,
                1.1892447471618652,
                1.1950787305831909,
                1.2007367610931396,
                1.207337498664856,
                1.2142513990402222,
                1.2228926420211792,
                1.233041524887085,
                1.2572181224822998,
                1.2893649339675903,
                1.3079429864883423,
                1.3335549831390381,
                1.3646875619888306,
                1.4099396467208862,
                1.4556539058685303,
                1.5140371322631836,
                1.5976446866989136,
                1.7324869632720947,
                1.9824578762054443,
                2.3539209365844727,
                3.6008808612823486
              ],
            "feature_id":"",
            "feature_index":3,
            "flat_feature_index":3,
            "has_nans":false,
            "nan_value_treatment":"AsIs"
          },
          {
            "borders":
              [
                39.5,
                68.5,
                101.5,
                137.5,
                166.5,
                197.5,
                227.5,
                248.5,
                270.5,
                294.5,
                314.5,
                331.5,
                351.5,
                367.5,
                381.5,
                395.5,
                409.5,
                421.5,
                435.5,
                450.5,
                462.5,
                475.5,
                495.5,
                505.5,
                514.5,
                522.5,
                532.5,
                542.5,
                551.5,
                561.5,
                597.5,
                604.5,
                611.5,
                619.5,
                627.5,
                633.5,
                649.5,
                657.5,
                690.5,
                697.5,
                703.5,
                716.5,
                728.5,
                733.5,
                740.5,
                752.5,
                776.5,
                787.5,
                799.5,
                805.5,
                810.5,
                822.5,
                827.5,
                854.5,
                871.5,
                877.5,
                917.5,
                923.5,
                928.5,
                934.5,
                940.5,
                946.5,
                951.5,
                976.5,
                982.5,
                993.5,
                1010.5,
                1048.5,
                1053.5,
                1058.5,
                1070.5,
                1076.5,
                1090.5,
                1096.5,
                1109.5,
                1116.5,
                1154.5,
                1159.5,
                1184.5,
                1198.5,
                1212.5,
                1272.5,
                1278.5,
                1291.5,
                1305.5,
                1313.5,
                1321.5,
                1330.5,
                1344.5,
                1418.5,
                1427.5,
                1436.5,
                1446.5,
                1456.5,
                1466.5,
                1475.5,
                1502.5,
                1510.5,
                1644.5,
                1657.5,
                1793.5,
                1806.5,
                1835.5,
                1849.5,
                1994.5,
                2012.5,
                2032.5,
                2049.5,
                2071.5,
                2164.5,
                2190.5,
                2299.5,
                2512.5,
                2548.5,
                2591.5,
                2677.5,
                2817.5,
                2986.5,
                3044,
                3123.5,
                3271,
                3387,
                3505.5,
                4334.5,
                4905.5,
                5472,
                7490
              ],
            "feature_id":"",
            "feature_index":4,
            "flat_feature_index":4,
            "has_nans":false,
            "nan_value_treatment":"AsIs"
          },
          {
            "borders":
              [
                1.4150233268737793,
                1.5064970254898071,
                1.5643069744110107,
                1.6086692810058594,
                1.6521791219711304,
                1.6929991245269775,
                1.7271912097930908,
                1.75942063331604,
                1.7910717725753784,
                1.8148950338363647,
                1.8380742073059082,
                1.8576133251190186,
                1.8759236335754395,
                1.8946778774261475,
                1.9131865501403809,
                1.929201602935791,
                1.9465794563293457,
                1.9615679979324341,
                1.9760794639587402,
                1.9940688610076904,
                2.0089588165283203,
                2.0243606567382813,
                2.0404043197631836,
                2.0532617568969727,
                2.068408727645874,
                2.0797324180603027,
                2.093332052230835,
                2.1088123321533203,
                2.122406005859375,
                2.1345722675323486,
                2.1483538150787354,
                2.1607835292816162,
                2.1693820953369141,
                2.1792259216308594,
                2.1896557807922363,
                2.2018685340881348,
                2.2128872871398926,
                2.2237401008605957,
                2.2330389022827148,
                2.2428159713745117,
                2.2533607482910156,
                2.2624068260192871,
                2.2700071334838867,
                2.2786266803741455,
                2.287135124206543,
                2.2951431274414063,
                2.3021683692932129,
                2.3101725578308105,
                2.3208389282226563,
                2.3293976783752441,
                2.3376598358154297,
                2.3436095714569092,
                2.3523013591766357,
                2.3678672313690186,
                2.375460147857666,
                2.3821742534637451,
                2.3900785446166992,
                2.3969831466674805,
                2.4105963706970215,
                2.4169893264770508,
                2.4241900444030762,
                2.4296951293945313,
                2.4364228248596191,
                2.4435436725616455,
                2.4499444961547852,
                2.4554777145385742,
                2.4607200622558594,
                2.469210147857666,
                2.4807734489440918,
                2.5069108009338379,
                2.5124120712280273,
                2.5187005996704102,
                2.5249786376953125,
                2.5314545631408691,
                2.5394530296325684,
                2.5471358299255371,
                2.5525472164154053,
                2.5580875873565674,
                2.565183162689209,
                2.5729944705963135,
                2.5782191753387451,
                2.5900344848632813,
                2.595583438873291,
                2.600522518157959,
                2.6069073677062988,
                2.618710994720459,
                2.6382372379302979,
                2.6437139511108398,
                2.6482295989990234,
                2.6532983779907227,
                2.6658029556274414,
                2.6711409091949463,
                2.6774544715881348,
                2.6888551712036133,
                2.6943068504333496,
                2.7007772922515869,
                2.7064812183380127,
                2.7124447822570801,
                2.7182064056396484,
                2.7242584228515625,
                2.7292742729187012,
                2.7345180511474609,
                2.7398972511291504,
                2.7519397735595703,
                2.7586708068847656,
                2.7692828178405762,
                2.775942325592041,
                2.7809219360351563,
                2.7881853580474854,
                2.7943737506866455,
                2.8014626502990723,
                2.8072090148925781,
                2.8125879764556885,
                2.8315277099609375,
                2.8374247550964355,
                2.843447208404541,
                2.8488404750823975,
                2.8713185787200928,
                2.8796720504760742,
                2.8849239349365234,
                2.8969385623931885,
                2.91705322265625,
                2.9240942001342773,
                2.9313516616821289,
                2.9441909790039063,
                2.9509546756744385,
                2.957176685333252,
                2.9624686241149902,
                2.9696516990661621,
                2.9761233329772949,
                2.995234489440918,
                3.0016398429870605,
                3.0153610706329346,
                3.021909236907959,
                3.0281136035919189,
                3.0366077423095703,
                3.0441794395446777,
                3.0588958263397217,
                3.0721335411071777,
                3.0851917266845703,
                3.0935935974121094,
                3.1001138687133789,
                3.1303682327270508,
                3.1395277976989746,
                3.1490955352783203,
                3.1575515270233154,
                3.1813225746154785,
                3.18910813331604,
                3.1972827911376953,
                3.215339183807373,
                3.2358732223510742,
                3.2439515590667725,
                3.2536730766296387,
                3.2649359703063965,
                3.2733879089355469,
                3.2822637557983398,
                3.2911815643310547,
                3.3113980293273926,
                3.3211531639099121,
                3.3444480895996094,
                3.3641071319580078,
                3.3751332759857178,
                3.3987207412719727,
                3.4114155769348145,
                3.4261083602905273,
                3.4385011196136475,
                3.4686241149902344,
                3.483156681060791,
                3.509580135345459,
                3.6022176742553711,
                3.6189670562744141,
                3.6375906467437744,
                3.6569147109985352,
                3.674126148223877,
                3.7102904319763184,
                3.7284832000732422,
                3.74749755859375,
                3.9014678001403809,
                3.9262809753417969,
                3.9577400684356689,
                3.9899153709411621,
                4.0298910140991211,
                4.0669174194335938,
                4.0989375114440918,
                4.1322336196899414,
                4.1663799285888672,
                4.1990766525268555,
                4.2469606399536133,
                4.2847490310668945,
                4.3231663703918457,
                4.370391845703125,
                4.4181861877441406,
                4.4717555046081543,
                4.5430202484130859,
                4.6083478927612305,
                4.6792445182800293,
                4.880366325378418,
                5.2529869079589844,
                5.6230096817016602,
                6.4675531387329102
              ],
            "feature_id":"",
            "feature_index":5,
            "flat_feature_index":5,
            "has_nans":false,
            "nan_value_treatment":"AsIs"
          },
          {
            "borders":
              [
                32.604999542236328,
                32.694999694824219,
                32.715000152587891,
                32.724998474121094,
                32.735000610351563,
                32.745002746582031,
                32.764999389648438,
                32.805000305175781,
                32.81500244140625,
                32.845001220703125,
                32.904998779296875,
                32.944999694824219,
                32.974998474121094,
                33.034999847412109,
                33.104999542236328,
                33.154998779296875,
                33.194999694824219,
                33.254997253417969,
                33.444999694824219,
                33.514999389648438,
                33.584999084472656,
                33.604999542236328,
                33.614997863769531,
                33.635002136230469,
                33.645000457763672,
                33.654998779296875,
                33.665000915527344,
                33.674999237060547,
                33.68499755859375,
                33.694999694824219,
                33.715000152587891,
                33.735000610351563,
                33.745002746582031,
                33.754997253417969,
                33.764999389648438,
                33.775001525878906,
                33.784999847412109,
                33.794998168945313,
                33.805000305175781,
                33.81500244140625,
                33.825000762939453,
                33.834999084472656,
                33.845001220703125,
                33.854999542236328,
                33.864997863769531,
                33.875,
                33.885002136230469,
                33.895000457763672,
                33.904998779296875,
                33.915000915527344,
                33.93499755859375,
                33.955001831054688,
                33.965000152587891,
                33.974998474121094,
                33.985000610351563,
                33.995002746582031,
                34.004997253417969,
                34.014999389648438,
                34.025001525878906,
                34.034999847412109,
                34.044998168945313,
                34.055000305175781,
                34.06500244140625,
                34.075000762939453,
                34.084999084472656,
                34.095001220703125,
                34.104999542236328,
                34.114997863769531,
                34.125,
                34.135002136230469,
                34.145000457763672,
                34.154998779296875,
                34.165000915527344,
                34.174999237060547,
                34.18499755859375,
                34.194999694824219,
                34.205001831054688,
                34.215000152587891,
                34.224998474121094,
                34.245002746582031,
                34.254997253417969,
                34.264999389648438,
                34.275001525878906,
                34.345001220703125,
                34.404998779296875,
                34.43499755859375,
                34.444999694824219,
                34.514999389648438,
                34.625,
                34.654998779296875,
                34.694999694824219,
                34.825000762939453,
                34.885002136230469,
                34.974998474121094,
                35.194999694824219,
                35.275001525878906,
                35.325000762939453,
                35.364997863769531,
                35.395000457763672,
                35.495002746582031,
                35.614997863769531,
                35.724998474121094,
                36.075000762939453,
                36.205001831054688,
                36.305000305175781,
                36.345001220703125,
                36.514999389648438,
                36.584999084472656,
                36.614997863769531,
                36.635002136230469,
                36.68499755859375,
                36.754997253417969,
                36.784999847412109,
                36.825000762939453,
                36.834999084472656,
                36.974998474121094,
                36.995002746582031,
                37.044998168945313,
                37.095001220703125,
                37.224998474121094,
                37.245002746582031,
                37.254997253417969,
                37.264999389648438,
                37.354999542236328,
                37.375,
                37.385002136230469,
                37.395000457763672,
                37.404998779296875,
                37.455001831054688,
                37.495002746582031,
                37.514999389648438,
                37.534999847412109,
                37.555000305175781,
                37.575000762939453,
                37.595001220703125,
                37.614997863769531,
                37.635002136230469,
                37.645000457763672,
                37.654998779296875,
                37.665000915527344,
                37.694999694824219,
                37.705001831054688,
                37.715000152587891,
                37.724998474121094,
                37.745002746582031,
                37.754997253417969,
                37.764999389648438,
                37.775001525878906,
                37.784999847412109,
                37.794998168945313,
                37.805000305175781,
                37.81500244140625,
                37.825000762939453,
                37.845001220703125,
                37.854999542236328,
                37.864997863769531,
                37.875,
                37.885002136230469,
                37.895000457763672,
                37.904998779296875,
                37.915000915527344,
                37.924999237060547,
                37.93499755859375,
                37.944999694824219,
                37.955001831054688,
                37.965000152587891,
                37.985000610351563,
                37.995002746582031,
                38.004997253417969,
                38.104999542236328,
                38.125,
                38.145000457763672,
                38.284999847412109,
                38.325000762939453,
                38.375,
                38.404998779296875,
                38.424999237060547,
                38.444999694824219,
                38.474998474121094,
                38.504997253417969,
                38.525001525878906,
                38.534999847412109,
                38.544998168945313,
                38.555000305175781,
                38.56500244140625,
                38.595001220703125,
                38.645000457763672,
                38.665000915527344,
                38.674999237060547,
                38.68499755859375,
                38.705001831054688,
                38.754997253417969,
                38.885002136230469,
                38.944999694824219,
                39.044998168945313,
                39.264999389648438,
                39.424999237060547,
                39.635002136230469,
                39.764999389648438,
                40.075000762939453,
                40.43499755859375,
                40.974998474121094
              ],
            "feature_id":"",
            "feature_index":6,
            "flat_feature_index":6,
            "has_nans":false,
            "nan_value_treatment":"AsIs"
          },
          {
            "borders":
              [
                -124.1199951171875,
                -123.70500183105469,
                -123.15499877929688,
                -122.76499938964844,
                -122.66500091552734,
                -122.61500549316406,
                -122.54499816894531,
                -122.5050048828125,
                -122.48500061035156,
                -122.47500610351563,
                -122.45500183105469,
                -122.44499969482422,
                -122.43499755859375,
                -122.42500305175781,
                -122.41500091552734,
                -122.40499877929688,
                -122.39500427246094,
                -122.36500549316406,
                -122.34500122070313,
                -122.32499694824219,
                -122.31500244140625,
                -122.30500030517578,
                -122.29499816894531,
                -122.28500366210938,
                -122.27499389648438,
                -122.26499938964844,
                -122.2550048828125,
                -122.2449951171875,
                -122.23500061035156,
                -122.22500610351563,
                -122.21499633789063,
                -122.20500183105469,
                -122.19499969482422,
                -122.18499755859375,
                -122.16500091552734,
                -122.14500427246094,
                -122.125,
                -122.10499572753906,
                -122.09500122070313,
                -122.08499908447266,
                -122.07499694824219,
                -122.06500244140625,
                -122.04499816894531,
                -122.03500366210938,
                -122.02499389648438,
                -122.01499938964844,
                -122.0050048828125,
                -121.9949951171875,
                -121.98500061035156,
                -121.96499633789063,
                -121.95500183105469,
                -121.94499969482422,
                -121.93499755859375,
                -121.92500305175781,
                -121.91500091552734,
                -121.89500427246094,
                -121.88499450683594,
                -121.875,
                -121.86500549316406,
                -121.83499908447266,
                -121.82499694824219,
                -121.81500244140625,
                -121.79499816894531,
                -121.76499938964844,
                -121.73500061035156,
                -121.66500091552734,
                -121.625,
                -121.58499908447266,
                -121.54499816894531,
                -121.5050048828125,
                -121.47500610351563,
                -121.45500183105469,
                -121.41500091552734,
                -121.38499450683594,
                -121.36500549316406,
                -121.34500122070313,
                -121.32499694824219,
                -121.30500030517578,
                -121.29499816894531,
                -121.28500366210938,
                -121.27499389648438,
                -121.2550048828125,
                -121.23500061035156,
                -121.20500183105469,
                -121.14500427246094,
                -121.02499389648438,
                -120.96499633789063,
                -120.90499877929688,
                -120.77499389648438,
                -120.61500549316406,
                -120.5050048828125,
                -120.42500305175781,
                -120.32499694824219,
                -120.18499755859375,
                -120.06500244140625,
                -119.97500610351563,
                -119.85499572753906,
                -119.81500244140625,
                -119.78500366210938,
                -119.70500183105469,
                -119.67500305175781,
                -119.61500549316406,
                -119.52499389648438,
                -119.38499450683594,
                -119.31500244140625,
                -119.27499389648438,
                -119.22500610351563,
                -119.09500122070313,
                -119.01499938964844,
                -118.93499755859375,
                -118.85499572753906,
                -118.625,
                -118.58499908447266,
                -118.51499938964844,
                -118.48500061035156,
                -118.46499633789063,
                -118.43499755859375,
                -118.42500305175781,
                -118.41500091552734,
                -118.40499877929688,
                -118.39500427246094,
                -118.38499450683594,
                -118.375,
                -118.36500549316406,
                -118.35499572753906,
                -118.34500122070313,
                -118.33499908447266,
                -118.32499694824219,
                -118.31500244140625,
                -118.30500030517578,
                -118.29499816894531,
                -118.28500366210938,
                -118.27499389648438,
                -118.26499938964844,
                -118.2550048828125,
                -118.2449951171875,
                -118.23500061035156,
                -118.22500610351563,
                -118.21499633789063,
                -118.19499969482422,
                -118.18499755859375,
                -118.17500305175781,
                -118.16500091552734,
                -118.15499877929688,
                -118.125,
                -118.11500549316406,
                -118.10499572753906,
                -118.09500122070313,
                -118.08499908447266,
                -118.07499694824219,
                -118.05500030517578,
                -118.04499816894531,
                -118.03500366210938,
                -118.02499389648438,
                -118.01499938964844,
                -118.0050048828125,
                -117.9949951171875,
                -117.98500061035156,
                -117.96499633789063,
                -117.95500183105469,
                -117.93499755859375,
                -117.92500305175781,
                -117.91500091552734,
                -117.90499877929688,
                -117.89500427246094,
                -117.875,
                -117.86500549316406,
                -117.84500122070313,
                -117.82499694824219,
                -117.80500030517578,
                -117.78500366210938,
                -117.76499938964844,
                -117.7449951171875,
                -117.71499633789063,
                -117.69499969482422,
                -117.67500305175781,
                -117.65499877929688,
                -117.63499450683594,
                -117.60499572753906,
                -117.55500030517578,
                -117.47500610351563,
                -117.41500091552734,
                -117.35499572753906,
                -117.33499908447266,
                -117.31500244140625,
                -117.30500030517578,
                -117.27499389648438,
                -117.26499938964844,
                -117.2550048828125,
                -117.2449951171875,
                -117.23500061035156,
                -117.22500610351563,
                -117.21499633789063,
                -117.20500183105469,
                -117.18499755859375,
                -117.17500305175781,
                -117.16500091552734,
                -117.14500427246094,
                -117.13499450683594,
                -117.125,
                -117.11500549316406,
                -117.09500122070313,
                -117.05500030517578,
                -117.04499816894531,
                -117.02499389648438,
                -117.0050048828125,
                -116.88499450683594,
                -116.61500549316406,
                -116.40499877929688,
                -116.1300048828125
              ],
            "feature_id":"",
            "feature_index":7,
            "flat_feature_index":7,
            "has_nans":false,
            "nan_value_treatment":"AsIs"
          }
        ]
    },
  "model_info":
    {
      "catboost_version_info":"Git info:\n    Commit: 98df6bf8d4e6ab054b75b727f8d758c3399f4867\n    Branch: heads/master\n    Author: snermolaev <snermolaev@yandex-team.com>\n    Summary: get rid of six faeb2c69960c197db9fc9c5d0696d6dc0ce3d74a\n    git-svn info:\n    Last Changed Rev: 9293085\n\nOther info:\n    Build by: zomb-ml-platform-msk\n    Top src dir: /Users/zomb-ml-platform-msk/go-agent-21.2.0/pipelines/BuildMaster/catboost.git\n",
      "model_guid":"b6b9d4ae-aba1bcb8-bbf0df06-6cb7c5da",
      "output_options":"{\"name\":\"experiment\",\"verbose\":0,\"test_error_log\":\"test_error.tsv\",\"json_log\":\"catboost_training.json\",\"result_model_file\":\"model\",\"roc_file\":\"\",\"eval_file_name\":\"\",\"use_best_model\":false,\"allow_writing_files\":true,\"prediction_type\":[\"RawFormulaVal\"],\"fstr_internal_file\":\"\",\"output_columns\":[\"SampleId\",\"RawFormulaVal\",\"Label\"],\"snapshot_interval\":600,\"time_left_log\":\"time_left.tsv\",\"fstr_type\":\"FeatureImportance\",\"profile_log\":\"catboost_profile.log\",\"train_dir\":\"catboost_info\",\"learn_error_log\":\"learn_error.tsv\",\"training_options_file\":\"\",\"snapshot_file\":\"experiment.cbsnapshot\",\"save_snapshot\":false,\"model_format\":[\"CatboostBinary\"],\"final_feature_calcer_computation_mode\":\"Default\",\"metric_period\":1,\"output_borders\":\"\",\"final_ctr_computation_mode\":\"Default\",\"best_model_min_trees\":1,\"fstr_regular_file\":\"\"}",
      "params":
        {
          "boosting_options":
            {
              "approx_on_full_history":false,
              "boost_from_average":true,
              "boosting_type":"Plain",
              "fold_len_multiplier":2,
              "fold_permutation_block":0,
              "iterations":1000,
              "learning_rate":0.066054999828338623,
              "model_shrink_mode":"Constant",
              "model_shrink_rate":0,
              "od_config":
                {
                  "stop_pvalue":0,
                  "type":"None",
                  "wait_iterations":20
                },
              "permutation_count":4,
              "posterior_sampling":false
            },
          "cat_feature_params":
            {
              "combinations_ctrs":
                [
                  {
                    "ctr_binarization":
                      {
                        "border_count":15,
                        "border_type":"Uniform"
                      },
                    "ctr_type":"Borders",
                    "prior_estimation":"No",
                    "priors":
                      [
                        [
                          0,
                          1
                        ],
                        [
                          0.5,
                          1
                        ],
                        [
                          1,
                          1
                        ]
                      ],
                    "target_binarization":
                      {
                        "border_count":1,
                        "border_type":"MinEntropy"
                      }
                  },
                  {
                    "ctr_binarization":
                      {
                        "border_count":15,
                        "border_type":"Uniform"
                      },
                    "ctr_type":"Counter",
                    "prior_estimation":"No",
                    "priors":
                      [
                        [
                          0,
                          1
                        ]
                      ]
                  }
                ],
              "counter_calc_method":"SkipTest",
              "ctr_leaf_count_limit":18446744073709551615,
              "max_ctr_complexity":4,
              "one_hot_max_size":2,
              "per_feature_ctrs":
                {
                },
              "simple_ctrs":
                [
                  {
                    "ctr_binarization":
                      {
                        "border_count":15,
                        "border_type":"Uniform"
                      },
                    "ctr_type":"Borders",
                    "prior_estimation":"No",
                    "priors":
                      [
                        [
                          0,
                          1
                        ],
                        [
                          0.5,
                          1
                        ],
                        [
                          1,
                          1
                        ]
                      ],
                    "target_binarization":
                      {
                        "border_count":1,
                        "border_type":"MinEntropy"
                      }
                  },
                  {
                    "ctr_binarization":
                      {
                        "border_count":15,
                        "border_type":"Uniform"
                      },
                    "ctr_type":"Counter",
                    "prior_estimation":"No",
                    "priors":
                      [
                        [
                          0,
                          1
                        ]
                      ]
                  }
                ],
              "store_all_simple_ctr":false,
              "target_binarization":
                {
                  "border_count":1,
                  "border_type":"MinEntropy"
                }
            },
          "data_processing_options":
            {
              "allow_const_label":false,
              "auto_class_weights":"None",
              "class_names":
                [
                ],
              "class_weights":
                [
                ],
              "classes_count":0,
              "dev_default_value_fraction_for_sparse":0.82999998331069946,
              "dev_group_features":false,
              "dev_leafwise_scoring":false,
              "dev_sparse_array_indexing":"Indices",
              "embedding_processing_options":
                {
                  "embedding_processing":
                    {
                      "default":
                        [
                          "LDA",
                          "KNN"
                        ]
                    }
                },
              "eval_fraction":0,
              "float_features_binarization":
                {
                  "border_count":254,
                  "border_type":"GreedyLogSum",
                  "dev_max_subset_size_for_build_borders":200000,
                  "nan_mode":"Min"
                },
              "force_unit_auto_pair_weights":false,
              "has_time":false,
              "ignored_features":
                [
                ],
              "per_float_feature_quantization":
                {
                },
              "target_border":null,
              "text_processing_options":
                {
                  "dictionaries":
                    [
                      {
                        "dictionary_id":"BiGram",
                        "end_of_sentence_token_policy":"Skip",
                        "end_of_word_token_policy":"Insert",
                        "gram_order":"2",
                        "max_dictionary_size":"50000",
                        "occurrence_lower_bound":"5",
                        "skip_step":"0",
                        "start_token_id":"0",
                        "token_level_type":"Word"
                      },
                      {
                        "dictionary_id":"Word",
                        "end_of_sentence_token_policy":"Skip",
                        "end_of_word_token_policy":"Insert",
                        "gram_order":"1",
                        "max_dictionary_size":"50000",
                        "occurrence_lower_bound":"5",
                        "skip_step":"0",
                        "start_token_id":"0",
                        "token_level_type":"Word"
                      }
                    ],
                  "feature_processing":
                    {
                      "default":
                        [
                          {
                            "dictionaries_names":
                              [
                                "BiGram",
                                "Word"
                              ],
                            "feature_calcers":
                              [
                                "BoW"
                              ],
                            "tokenizers_names":
                              [
                                "Space"
                              ]
                          }
                        ]
                    },
                  "tokenizers":
                    [
                      {
                        "delimiter":" ",
                        "languages":
                          [
                          ],
                        "lemmatizing":"0",
                        "lowercasing":"0",
                        "number_process_policy":"LeaveAsIs",
                        "number_token":"",
                        "separator_type":"ByDelimiter",
                        "skip_empty":"1",
                        "split_by_set":"0",
                        "subtokens_policy":"SingleToken",
                        "token_types":
                          [
                            "Number",
                            "Unknown",
                            "Word"
                          ],
                        "tokenizer_id":"Space"
                      }
                    ]
                }
            },
          "detailed_profile":false,
          "flat_params":
            {
              "depth":6,
              "iterations":1000,
              "loss_function":"RMSE",
              "verbose":0
            },
          "logging_level":"Silent",
          "loss_function":
            {
              "params":
                {
                },
              "type":"RMSE"
            },
          "metadata":
            {
            },
          "metrics":
            {
              "custom_metrics":
                [
                ],
              "eval_metric":
                {
                  "params":
                    {
                    },
                  "type":"RMSE"
                },
              "objective_metric":
                {
                  "params":
                    {
                    },
                  "type":"RMSE"
                }
            },
          "pool_metainfo_options":
            {
              "tags":
                {
                }
            },
          "random_seed":0,
          "system_options":
            {
              "file_with_hosts":"hosts.txt",
              "node_port":0,
              "node_type":"SingleHost",
              "thread_count":10,
              "used_ram_limit":""
            },
          "task_type":"CPU",
          "tree_learner_options":
            {
              "bayesian_matrix_reg":0.10000000149011612,
              "bootstrap":
                {
                  "mvs_reg":null,
                  "subsample":0.80000001192092896,
                  "type":"MVS"
                },
              "depth":6,
              "dev_efb_max_buckets":1024,
              "dev_leafwise_approxes":false,
              "dev_score_calc_obj_block_size":5000000,
              "grow_policy":"SymmetricTree",
              "l2_leaf_reg":3,
              "leaf_estimation_backtracking":"AnyImprovement",
              "leaf_estimation_iterations":1,
              "leaf_estimation_method":"Newton",
              "max_leaves":64,
              "min_data_in_leaf":1,
              "model_size_reg":0.5,
              "monotone_constraints":
                {
                },
              "penalties":
                {
                  "feature_weights":
                    {
                    },
                  "first_feature_use_penalties":
                    {
                    },
                  "penalties_coefficient":1,
                  "per_object_feature_penalties":
                    {
                    }
                },
              "random_score_type":"NormalWithModelSizeDecrease",
              "random_strength":1,
              "rsm":1,
              "sampling_frequency":"PerTree",
              "score_function":"Cosine",
              "sparse_features_conflict_fraction":0
            }
        },
      "train_finish_time":"2025-02-28T06:45:51Z",
      "training":"{\"metrics\":{\"learn_best_error\":{\"RMSE\":0.3497459371706114},\"test_metrics_history\":[],\"learn_metrics_history\":[{\"RMSE\":1.1111381686442745},{\"RMSE\":1.0732785645223715},{\"RMSE\":1.0391858222245445},{\"RMSE\":1.0063387730912183},{\"RMSE\":0.9770782720794187},{\"RMSE\":0.9492989367378338},{\"RMSE\":0.922531189104477},{\"RMSE\":0.8982490926230615},{\"RMSE\":0.8772383306062967},{\"RMSE\":0.8553401355207629},{\"RMSE\":0.8363590461484134},{\"RMSE\":0.8181294741667631},{\"RMSE\":0.8021352776106455},{\"RMSE\":0.7857415184789962},{\"RMSE\":0.7722814852080773},{\"RMSE\":0.7602451303433541},{\"RMSE\":0.7469031355071212},{\"RMSE\":0.7362041128717581},{\"RMSE\":0.7263602063497739},{\"RMSE\":0.7146617945484743},{\"RMSE\":0.7057166685194816},{\"RMSE\":0.6979740423085213},{\"RMSE\":0.6910508724577019},{\"RMSE\":0.6814199407989864},{\"RMSE\":0.673877826765919},{\"RMSE\":0.6674640404822231},{\"RMSE\":0.660811381499474},{\"RMSE\":0.6555593998028031},{\"RMSE\":0.6500061981563163},{\"RMSE\":0.6428976965410296},{\"RMSE\":0.6389103194148759},{\"RMSE\":0.6353082983681648},{\"RMSE\":0.631790765902529},{\"RMSE\":0.6284131502033674},{\"RMSE\":0.6229949395342067},{\"RMSE\":0.6189200036121087},{\"RMSE\":0.6158777762293951},{\"RMSE\":0.611223350403764},{\"RMSE\":0.606445212597579},{\"RMSE\":0.6021128871967107},{\"RMSE\":0.599631896641849},{\"RMSE\":0.5966062559235187},{\"RMSE\":0.593251576838495},{\"RMSE\":0.5904008512190265},{\"RMSE\":0.5885665383649441},{\"RMSE\":0.5849372454145844},{\"RMSE\":0.5829281744754775},{\"RMSE\":0.5808838032257235},{\"RMSE\":0.5783988071522485},{\"RMSE\":0.5753638754753847},{\"RMSE\":0.5732741139940953},{\"RMSE\":0.571382748797688},{\"RMSE\":0.5687624950175436},{\"RMSE\":0.5674178582937441},{\"RMSE\":0.5648569833910246},{\"RMSE\":0.5633343402898818},{\"RMSE\":0.5609898186098676},{\"RMSE\":0.5596783552897595},{\"RMSE\":0.558507623393753},{\"RMSE\":0.5567074430310619},{\"RMSE\":0.5550099605172261},{\"RMSE\":0.5540443285052099},{\"RMSE\":0.5530110505919043},{\"RMSE\":0.5516606756113038},{\"RMSE\":0.5506526834670168},{\"RMSE\":0.5492248279432471},{\"RMSE\":0.5481490490061526},{\"RMSE\":0.5469727189502577},{\"RMSE\":0.5461094063484123},{\"RMSE\":0.5454925136516379},{\"RMSE\":0.5442558445363437},{\"RMSE\":0.543394894204794},{\"RMSE\":0.5420686276012351},{\"RMSE\":0.5413000465383652},{\"RMSE\":0.5401471543159796},{\"RMSE\":0.5391990078471254},{\"RMSE\":0.5382474181023464},{\"RMSE\":0.5372740499032157},{\"RMSE\":0.5360429122261235},{\"RMSE\":0.5353827173826992},{\"RMSE\":0.5340907365400457},{\"RMSE\":0.5331382258699475},{\"RMSE\":0.5318268428606424},{\"RMSE\":0.5313119588802563},{\"RMSE\":0.5304150298953801},{\"RMSE\":0.529403218050796},{\"RMSE\":0.528911850907859},{\"RMSE\":0.528268251135901},{\"RMSE\":0.5276517492017542},{\"RMSE\":0.5272713145515701},{\"RMSE\":0.5261876542306779},{\"RMSE\":0.5250045177935536},{\"RMSE\":0.5244510226065655},{\"RMSE\":0.5236171704000986},{\"RMSE\":0.523037964176738},{\"RMSE\":0.522381782082685},{\"RMSE\":0.5216853846760385},{\"RMSE\":0.5208738339299248},{\"RMSE\":0.5197000454005741},{\"RMSE\":0.5186656555060933},{\"RMSE\":0.5178055584830464},{\"RMSE\":0.5171127149372655},{\"RMSE\":0.5164342457893445},{\"RMSE\":0.5153460003720092},{\"RMSE\":0.5148515835324059},{\"RMSE\":0.5143357021388576},{\"RMSE\":0.5136232009166103},{\"RMSE\":0.5132568117938937},{\"RMSE\":0.5124521679693366},{\"RMSE\":0.5118269935587315},{\"RMSE\":0.5113142108012277},{\"RMSE\":0.5106707156410947},{\"RMSE\":0.5099330948790612},{\"RMSE\":0.5093929534815884},{\"RMSE\":0.5085876722274258},{\"RMSE\":0.50796048152216},{\"RMSE\":0.5075621109705192},{\"RMSE\":0.5069194757566269},{\"RMSE\":0.5064767982716875},{\"RMSE\":0.5058048868863797},{\"RMSE\":0.5052054937287795},{\"RMSE\":0.5049074002790628},{\"RMSE\":0.5042660319186357},{\"RMSE\":0.5038425928063912},{\"RMSE\":0.5034384233379605},{\"RMSE\":0.5030590924805574},{\"RMSE\":0.5023213627148773},{\"RMSE\":0.5018441105903948},{\"RMSE\":0.5013854484265139},{\"RMSE\":0.50108143260393},{\"RMSE\":0.5003616618603125},{\"RMSE\":0.4999302261659249},{\"RMSE\":0.4993906325760628},{\"RMSE\":0.49892623068036435},{\"RMSE\":0.4984894987582189},{\"RMSE\":0.49779249230431105},{\"RMSE\":0.4970482846342881},{\"RMSE\":0.49670427889771573},{\"RMSE\":0.4959880434352505},{\"RMSE\":0.4957045101292402},{\"RMSE\":0.49537307869968367},{\"RMSE\":0.494810582996439},{\"RMSE\":0.4941983825651634},{\"RMSE\":0.49359601687944654},{\"RMSE\":0.4931989521166081},{\"RMSE\":0.4929562655764987},{\"RMSE\":0.49254945199567496},{\"RMSE\":0.492148913727348},{\"RMSE\":0.4918263364891827},{\"RMSE\":0.491338721219244},{\"RMSE\":0.490772791946624},{\"RMSE\":0.490124724237347},{\"RMSE\":0.48896153289130223},{\"RMSE\":0.4884669223896802},{\"RMSE\":0.4879819503463397},{\"RMSE\":0.48758124100818107},{\"RMSE\":0.48728434526233044},{\"RMSE\":0.4867371194158452},{\"RMSE\":0.48617757970270925},{\"RMSE\":0.4858062819144272},{\"RMSE\":0.4847947257422034},{\"RMSE\":0.48431206421805667},{\"RMSE\":0.4837326669676866},{\"RMSE\":0.4832592323019905},{\"RMSE\":0.48286954626117917},{\"RMSE\":0.48242048708322516},{\"RMSE\":0.4819824418141198},{\"RMSE\":0.48153718606828055},{\"RMSE\":0.4812441317621459},{\"RMSE\":0.48072188225619833},{\"RMSE\":0.48024995955531125},{\"RMSE\":0.47959887143742935},{\"RMSE\":0.47923114940599953},{\"RMSE\":0.4787482572278476},{\"RMSE\":0.4782098110081139},{\"RMSE\":0.4778272846532776},{\"RMSE\":0.47735187760297476},{\"RMSE\":0.47701781896599693},{\"RMSE\":0.4765469350298209},{\"RMSE\":0.47575389441987354},{\"RMSE\":0.4753247589738693},{\"RMSE\":0.4748889507101142},{\"RMSE\":0.4745668049092487},{\"RMSE\":0.474003033143447},{\"RMSE\":0.47367382560896437},{\"RMSE\":0.4731116472691693},{\"RMSE\":0.47270122100453427},{\"RMSE\":0.4723484097847504},{\"RMSE\":0.47195892029125275},{\"RMSE\":0.4714928750261284},{\"RMSE\":0.4710793423141865},{\"RMSE\":0.4707849014169102},{\"RMSE\":0.47038315257811425},{\"RMSE\":0.46964529714834213},{\"RMSE\":0.4692662473222613},{\"RMSE\":0.4689515404563858},{\"RMSE\":0.4685789619166895},{\"RMSE\":0.468080026593997},{\"RMSE\":0.46757512786318056},{\"RMSE\":0.46720310994466235},{\"RMSE\":0.4668420527473667},{\"RMSE\":0.4665132139365576},{\"RMSE\":0.46610864520831063},{\"RMSE\":0.4656919752521766},{\"RMSE\":0.4652654123692262},{\"RMSE\":0.46484879239255816},{\"RMSE\":0.4646429826944598},{\"RMSE\":0.46423256402718593},{\"RMSE\":0.46384227450863763},{\"RMSE\":0.4636000902595443},{\"RMSE\":0.46325196779091543},{\"RMSE\":0.462940815863191},{\"RMSE\":0.46252749182428177},{\"RMSE\":0.4621725221022245},{\"RMSE\":0.46183363450990966},{\"RMSE\":0.46144650300581436},{\"RMSE\":0.46096899383032824},{\"RMSE\":0.46072183480389817},{\"RMSE\":0.4603513602149657},{\"RMSE\":0.4599838617237053},{\"RMSE\":0.45959770553137025},{\"RMSE\":0.45937895909506254},{\"RMSE\":0.45909942510115587},{\"RMSE\":0.45885520012837355},{\"RMSE\":0.4585368893533736},{\"RMSE\":0.4583089622311747},{\"RMSE\":0.457975708222142},{\"RMSE\":0.45762328822054},{\"RMSE\":0.45731017615353775},{\"RMSE\":0.4570623033869416},{\"RMSE\":0.4566115105602371},{\"RMSE\":0.45628193004430395},{\"RMSE\":0.4559937719901162},{\"RMSE\":0.45571724498266736},{\"RMSE\":0.45532779535188683},{\"RMSE\":0.45513012148550214},{\"RMSE\":0.454820443384342},{\"RMSE\":0.4546267802502358},{\"RMSE\":0.4544540436819991},{\"RMSE\":0.45412413004628605},{\"RMSE\":0.45385905987367353},{\"RMSE\":0.45360823597702254},{\"RMSE\":0.45336664128265214},{\"RMSE\":0.4530552275084031},{\"RMSE\":0.4527962544232121},{\"RMSE\":0.4526066634594785},{\"RMSE\":0.45228207400185216},{\"RMSE\":0.4520421683002401},{\"RMSE\":0.4517843651363712},{\"RMSE\":0.4515042758592047},{\"RMSE\":0.4509983581735644},{\"RMSE\":0.45058762912756567},{\"RMSE\":0.4502774483026979},{\"RMSE\":0.45006357316237106},{\"RMSE\":0.44982097149451733},{\"RMSE\":0.44959125230625463},{\"RMSE\":0.44936862328036714},{\"RMSE\":0.4491248944822803},{\"RMSE\":0.4488033298289028},{\"RMSE\":0.4484778016186974},{\"RMSE\":0.4482479321923197},{\"RMSE\":0.4480079266650709},{\"RMSE\":0.44785123560820006},{\"RMSE\":0.44764613651374535},{\"RMSE\":0.44736186678893725},{\"RMSE\":0.44706120388201703},{\"RMSE\":0.44639883638007394},{\"RMSE\":0.4461217833802758},{\"RMSE\":0.4457761907642941},{\"RMSE\":0.44548308376302764},{\"RMSE\":0.4452812578177553},{\"RMSE\":0.44507592493977666},{\"RMSE\":0.4448417024260203},{\"RMSE\":0.44456399162581295},{\"RMSE\":0.44443066533708936},{\"RMSE\":0.44416774125762964},{\"RMSE\":0.4438688535500462},{\"RMSE\":0.4436171783038316},{\"RMSE\":0.4433891406895928},{\"RMSE\":0.44313679362208674},{\"RMSE\":0.44299514146967267},{\"RMSE\":0.44273681332768305},{\"RMSE\":0.4422737429276445},{\"RMSE\":0.442147894524938},{\"RMSE\":0.4419556363097808},{\"RMSE\":0.4415785357165265},{\"RMSE\":0.44132370723832115},{\"RMSE\":0.44100442769424286},{\"RMSE\":0.44077148744197414},{\"RMSE\":0.4405313079525592},{\"RMSE\":0.440252809516218},{\"RMSE\":0.4400538571709583},{\"RMSE\":0.43989722123360464},{\"RMSE\":0.4396440835181092},{\"RMSE\":0.43939566643003325},{\"RMSE\":0.43917814198418204},{\"RMSE\":0.438718821847855},{\"RMSE\":0.4384279477818414},{\"RMSE\":0.4381728369706496},{\"RMSE\":0.43797964566941755},{\"RMSE\":0.43776949963792466},{\"RMSE\":0.4375241703782681},{\"RMSE\":0.437257704537181},{\"RMSE\":0.4370481874293802},{\"RMSE\":0.4369381033842826},{\"RMSE\":0.4366933117991464},{\"RMSE\":0.4365234487677407},{\"RMSE\":0.43637309718647965},{\"RMSE\":0.4361015044950461},{\"RMSE\":0.435879947188583},{\"RMSE\":0.4357011947156513},{\"RMSE\":0.43552981001340135},{\"RMSE\":0.4353461449751909},{\"RMSE\":0.4351675179918195},{\"RMSE\":0.4349582613898473},{\"RMSE\":0.4346435418050552},{\"RMSE\":0.4344413924038424},{\"RMSE\":0.43419444571547144},{\"RMSE\":0.4340251385650804},{\"RMSE\":0.43389640023835857},{\"RMSE\":0.4336188220510386},{\"RMSE\":0.4334242021161117},{\"RMSE\":0.43319882514311103},{\"RMSE\":0.432936750191815},{\"RMSE\":0.43272358267901223},{\"RMSE\":0.4326175904264113},{\"RMSE\":0.4323369590556022},{\"RMSE\":0.43219287652376737},{\"RMSE\":0.431997278889393},{\"RMSE\":0.43176293333110394},{\"RMSE\":0.43141290430832197},{\"RMSE\":0.4311822580862396},{\"RMSE\":0.4308108949070463},{\"RMSE\":0.43065280320553795},{\"RMSE\":0.4304814470602579},{\"RMSE\":0.43026096409668657},{\"RMSE\":0.43008189900998794},{\"RMSE\":0.4298111166230586},{\"RMSE\":0.42960271707666464},{\"RMSE\":0.4292859007048095},{\"RMSE\":0.42906691822345916},{\"RMSE\":0.42885955547429955},{\"RMSE\":0.4286371969912358},{\"RMSE\":0.4284984091568172},{\"RMSE\":0.4282967884011897},{\"RMSE\":0.42805763829033566},{\"RMSE\":0.42789780134565514},{\"RMSE\":0.4276409085581335},{\"RMSE\":0.42739174322031437},{\"RMSE\":0.42717537446197223},{\"RMSE\":0.4269611682476272},{\"RMSE\":0.4268299566370255},{\"RMSE\":0.4266434485807217},{\"RMSE\":0.4264477011314986},{\"RMSE\":0.42630684269657676},{\"RMSE\":0.42609826462912254},{\"RMSE\":0.4259273032307402},{\"RMSE\":0.42575859084180945},{\"RMSE\":0.42555552440194605},{\"RMSE\":0.42539395197191315},{\"RMSE\":0.42530900851918685},{\"RMSE\":0.42509660746576555},{\"RMSE\":0.4249583301241678},{\"RMSE\":0.42479030760327946},{\"RMSE\":0.42461796094543575},{\"RMSE\":0.4244069990110997},{\"RMSE\":0.4241865029989321},{\"RMSE\":0.42397028245390506},{\"RMSE\":0.423888476310629},{\"RMSE\":0.4237206679902066},{\"RMSE\":0.42355661997478816},{\"RMSE\":0.42339107233178147},{\"RMSE\":0.423304826391054},{\"RMSE\":0.423095179499232},{\"RMSE\":0.42277489517465444},{\"RMSE\":0.42251955801527463},{\"RMSE\":0.42230796781013386},{\"RMSE\":0.42214502717449287},{\"RMSE\":0.421954626655012},{\"RMSE\":0.421715303104048},{\"RMSE\":0.42139639998521683},{\"RMSE\":0.42124584846139984},{\"RMSE\":0.42109677451879746},{\"RMSE\":0.42093619269215254},{\"RMSE\":0.4208161396093082},{\"RMSE\":0.4206173842393802},{\"RMSE\":0.42045628007018027},{\"RMSE\":0.42022456379237694},{\"RMSE\":0.4200909054949556},{\"RMSE\":0.4199486783651976},{\"RMSE\":0.4196887906325671},{\"RMSE\":0.4196070186690999},{\"RMSE\":0.4194532787548947},{\"RMSE\":0.41922549407429704},{\"RMSE\":0.419122430268413},{\"RMSE\":0.41882159384107864},{\"RMSE\":0.4186154678488942},{\"RMSE\":0.4185005924761109},{\"RMSE\":0.4184006353965754},{\"RMSE\":0.4180639182324946},{\"RMSE\":0.4179890202899017},{\"RMSE\":0.4177385109587036},{\"RMSE\":0.4175377082963062},{\"RMSE\":0.41734664461411974},{\"RMSE\":0.4170590716303186},{\"RMSE\":0.4169842814139327},{\"RMSE\":0.41689980921664643},{\"RMSE\":0.4167429847499107},{\"RMSE\":0.41652431319978933},{\"RMSE\":0.4163595494025704},{\"RMSE\":0.4159819341415203},{\"RMSE\":0.415764693924575},{\"RMSE\":0.4156513298920426},{\"RMSE\":0.41530959324854494},{\"RMSE\":0.4151703161667029},{\"RMSE\":0.4149284587645691},{\"RMSE\":0.41477799583795005},{\"RMSE\":0.41457855974736363},{\"RMSE\":0.4143857302640533},{\"RMSE\":0.41419908306889475},{\"RMSE\":0.4140261560007362},{\"RMSE\":0.41389451849352066},{\"RMSE\":0.41375479211090266},{\"RMSE\":0.4136171373025845},{\"RMSE\":0.4134575156951593},{\"RMSE\":0.4133022903902657},{\"RMSE\":0.41315948424362164},{\"RMSE\":0.41301191353042843},{\"RMSE\":0.4128202599403339},{\"RMSE\":0.4126605926404871},{\"RMSE\":0.4125903026714434},{\"RMSE\":0.4124931465043914},{\"RMSE\":0.412289708173302},{\"RMSE\":0.41216683276496247},{\"RMSE\":0.41197372566895707},{\"RMSE\":0.4117695348528181},{\"RMSE\":0.4115884336553354},{\"RMSE\":0.41147637033012135},{\"RMSE\":0.41134866979743595},{\"RMSE\":0.41120916417747366},{\"RMSE\":0.41097810453989675},{\"RMSE\":0.4107745136736019},{\"RMSE\":0.4106478229658879},{\"RMSE\":0.4104567638585531},{\"RMSE\":0.41032925218387334},{\"RMSE\":0.4100715169225643},{\"RMSE\":0.4099962123302488},{\"RMSE\":0.4097395661839175},{\"RMSE\":0.40954591439326216},{\"RMSE\":0.409483757304728},{\"RMSE\":0.4092763303834491},{\"RMSE\":0.40915831618770176},{\"RMSE\":0.40898788510583406},{\"RMSE\":0.4088610373761049},{\"RMSE\":0.4086917964173501},{\"RMSE\":0.4085639915970407},{\"RMSE\":0.40826028658878916},{\"RMSE\":0.40809992028503783},{\"RMSE\":0.40785330730071484},{\"RMSE\":0.4077510889111546},{\"RMSE\":0.40765449013156013},{\"RMSE\":0.4075058878583979},{\"RMSE\":0.4073324399256166},{\"RMSE\":0.4072254439857081},{\"RMSE\":0.40708635221647294},{\"RMSE\":0.4069264278469145},{\"RMSE\":0.4067714595876911},{\"RMSE\":0.40659201266101364},{\"RMSE\":0.40642674616988306},{\"RMSE\":0.40630149192587184},{\"RMSE\":0.4061450136170502},{\"RMSE\":0.4059613644492592},{\"RMSE\":0.4057895436949369},{\"RMSE\":0.40559486760554997},{\"RMSE\":0.40547224283315436},{\"RMSE\":0.4053064160511079},{\"RMSE\":0.40503384640173634},{\"RMSE\":0.4049273373815019},{\"RMSE\":0.404713827359894},{\"RMSE\":0.4045675611955721},{\"RMSE\":0.40446462004054184},{\"RMSE\":0.404325645939771},{\"RMSE\":0.40405053235816907},{\"RMSE\":0.4039319005153012},{\"RMSE\":0.4037503595156563},{\"RMSE\":0.40354519892888274},{\"RMSE\":0.4034331970583135},{\"RMSE\":0.4032527821177089},{\"RMSE\":0.4030901870497475},{\"RMSE\":0.4028998052581882},{\"RMSE\":0.40275823450811604},{\"RMSE\":0.402578706837409},{\"RMSE\":0.40240764127199635},{\"RMSE\":0.4022960630998859},{\"RMSE\":0.40214586500845534},{\"RMSE\":0.40203692937999047},{\"RMSE\":0.40187834133241773},{\"RMSE\":0.4017551377584601},{\"RMSE\":0.4016657260402869},{\"RMSE\":0.4014117751944452},{\"RMSE\":0.40133229126796455},{\"RMSE\":0.4011217887655938},{\"RMSE\":0.4009516814925393},{\"RMSE\":0.40085667685362686},{\"RMSE\":0.4006267415752412},{\"RMSE\":0.4005428447439033},{\"RMSE\":0.40041156448131693},{\"RMSE\":0.40029773206801395},{\"RMSE\":0.4001385824998873},{\"RMSE\":0.40002683754055546},{\"RMSE\":0.3999278459015793},{\"RMSE\":0.3998244217432117},{\"RMSE\":0.3996874214394634},{\"RMSE\":0.3995457070884793},{\"RMSE\":0.39934369395182145},{\"RMSE\":0.3991930435669803},{\"RMSE\":0.3990702502080127},{\"RMSE\":0.39881427166182687},{\"RMSE\":0.39870231013597573},{\"RMSE\":0.398551480700838},{\"RMSE\":0.3984591925752226},{\"RMSE\":0.39822264047147876},{\"RMSE\":0.39805444288830977},{\"RMSE\":0.3979181490567568},{\"RMSE\":0.39777913734111825},{\"RMSE\":0.39765682602142016},{\"RMSE\":0.39752138263008874},{\"RMSE\":0.39735605070417185},{\"RMSE\":0.3971996854159519},{\"RMSE\":0.39707916967885976},{\"RMSE\":0.3968989174334285},{\"RMSE\":0.3967498023660723},{\"RMSE\":0.3966107641013811},{\"RMSE\":0.39638047868266096},{\"RMSE\":0.3961708242499447},{\"RMSE\":0.3960534540384089},{\"RMSE\":0.39598377899279463},{\"RMSE\":0.39582022535576195},{\"RMSE\":0.3957307185299507},{\"RMSE\":0.3955693479911082},{\"RMSE\":0.39540982216260645},{\"RMSE\":0.3953225482058693},{\"RMSE\":0.3951852495103655},{\"RMSE\":0.3951046159212116},{\"RMSE\":0.3949106045771501},{\"RMSE\":0.39478675382945483},{\"RMSE\":0.3946056821385126},{\"RMSE\":0.39442664873988303},{\"RMSE\":0.39420815544005094},{\"RMSE\":0.3939892417811783},{\"RMSE\":0.3938460785754423},{\"RMSE\":0.393673066927653},{\"RMSE\":0.39359347039036363},{\"RMSE\":0.3934806313116435},{\"RMSE\":0.3933429134858367},{\"RMSE\":0.39329454565418465},{\"RMSE\":0.3931854324658246},{\"RMSE\":0.39308633067804416},{\"RMSE\":0.39295317171262595},{\"RMSE\":0.3928377336111148},{\"RMSE\":0.39273011379590406},{\"RMSE\":0.39266280901180495},{\"RMSE\":0.39259680336834796},{\"RMSE\":0.39238939602454087},{\"RMSE\":0.3922472992530236},{\"RMSE\":0.39211214089231455},{\"RMSE\":0.3919277656174663},{\"RMSE\":0.3918198748712979},{\"RMSE\":0.3916540169997337},{\"RMSE\":0.39155568483315617},{\"RMSE\":0.39145489726301935},{\"RMSE\":0.39134004433000863},{\"RMSE\":0.39121182000887395},{\"RMSE\":0.39108079294747683},{\"RMSE\":0.3909817507092551},{\"RMSE\":0.39089016773098384},{\"RMSE\":0.3907617331790616},{\"RMSE\":0.3906862130832366},{\"RMSE\":0.39058324047288656},{\"RMSE\":0.3904383894220006},{\"RMSE\":0.39031266676769927},{\"RMSE\":0.39021757218327063},{\"RMSE\":0.3900898064298563},{\"RMSE\":0.3899919026616839},{\"RMSE\":0.38990355796959913},{\"RMSE\":0.38983242594848094},{\"RMSE\":0.38970307314262975},{\"RMSE\":0.38961624864209937},{\"RMSE\":0.38953107460437825},{\"RMSE\":0.389439487413224},{\"RMSE\":0.38922639161565903},{\"RMSE\":0.3890945897132974},{\"RMSE\":0.3890205259148771},{\"RMSE\":0.3889162810984233},{\"RMSE\":0.3886603593271978},{\"RMSE\":0.38858426947269326},{\"RMSE\":0.3884695236250022},{\"RMSE\":0.38836156335856375},{\"RMSE\":0.3882739035067674},{\"RMSE\":0.3881741993893497},{\"RMSE\":0.38807232623977617},{\"RMSE\":0.3879381794465684},{\"RMSE\":0.3877986871122772},{\"RMSE\":0.38769760681777604},{\"RMSE\":0.38761560802146516},{\"RMSE\":0.3875199724665411},{\"RMSE\":0.3873272025242013},{\"RMSE\":0.38719465900118066},{\"RMSE\":0.3870865432244063},{\"RMSE\":0.38695799614192644},{\"RMSE\":0.3868739382502472},{\"RMSE\":0.3867639621543745},{\"RMSE\":0.38669924449944476},{\"RMSE\":0.3865707273889754},{\"RMSE\":0.3864618784624892},{\"RMSE\":0.3863702281713354},{\"RMSE\":0.38622082993255163},{\"RMSE\":0.38615726435551095},{\"RMSE\":0.38603299038568506},{\"RMSE\":0.38588524515390427},{\"RMSE\":0.3857889886956876},{\"RMSE\":0.3856744907047761},{\"RMSE\":0.38557998792141673},{\"RMSE\":0.3854858198250714},{\"RMSE\":0.3853106731569056},{\"RMSE\":0.385123837687373},{\"RMSE\":0.38501888103234794},{\"RMSE\":0.38491735144170813},{\"RMSE\":0.384709800691337},{\"RMSE\":0.3846225246998422},{\"RMSE\":0.3844989990578178},{\"RMSE\":0.3843883479495035},{\"RMSE\":0.3842913238604572},{\"RMSE\":0.38412467158675634},{\"RMSE\":0.3840900919632709},{\"RMSE\":0.38391429625261536},{\"RMSE\":0.3838498102336915},{\"RMSE\":0.3837686196398639},{\"RMSE\":0.38360308027650547},{\"RMSE\":0.3834704589797639},{\"RMSE\":0.383358726786489},{\"RMSE\":0.383223113322324},{\"RMSE\":0.383101680055411},{\"RMSE\":0.38299389025383157},{\"RMSE\":0.3828929327094928},{\"RMSE\":0.38271010758266866},{\"RMSE\":0.38267207634692474},{\"RMSE\":0.38255257459709713},{\"RMSE\":0.3823920769059715},{\"RMSE\":0.3823108388592434},{\"RMSE\":0.38215044472171195},{\"RMSE\":0.38199481649241096},{\"RMSE\":0.38184973514494297},{\"RMSE\":0.38175645855822266},{\"RMSE\":0.38164356264018506},{\"RMSE\":0.3815820132591747},{\"RMSE\":0.38145739136157475},{\"RMSE\":0.38136169191783725},{\"RMSE\":0.38123958836399907},{\"RMSE\":0.3810542328603677},{\"RMSE\":0.38090971902323667},{\"RMSE\":0.38079564340531974},{\"RMSE\":0.38070209991653065},{\"RMSE\":0.3805873039436987},{\"RMSE\":0.38044663157399045},{\"RMSE\":0.3804121527228562},{\"RMSE\":0.3803346097629621},{\"RMSE\":0.38026433179258023},{\"RMSE\":0.3801265083686891},{\"RMSE\":0.3800098534261355},{\"RMSE\":0.37988309909082024},{\"RMSE\":0.3796323881015481},{\"RMSE\":0.37951066241399223},{\"RMSE\":0.3794283758865039},{\"RMSE\":0.3792926009821462},{\"RMSE\":0.3791932891963768},{\"RMSE\":0.3790906028610204},{\"RMSE\":0.37902151511923476},{\"RMSE\":0.3789499598798663},{\"RMSE\":0.378893025733352},{\"RMSE\":0.3787432777843894},{\"RMSE\":0.37860618716206296},{\"RMSE\":0.37852628496669194},{\"RMSE\":0.3784392940668049},{\"RMSE\":0.37836474128622544},{\"RMSE\":0.3782685313574374},{\"RMSE\":0.37816285260033067},{\"RMSE\":0.37810577982417853},{\"RMSE\":0.37797342662195793},{\"RMSE\":0.37788933139864944},{\"RMSE\":0.377777522140407},{\"RMSE\":0.377654538873522},{\"RMSE\":0.37757547092974686},{\"RMSE\":0.3774747875642439},{\"RMSE\":0.3773998541982763},{\"RMSE\":0.37727866921622777},{\"RMSE\":0.3771014035749179},{\"RMSE\":0.37697530013115593},{\"RMSE\":0.376860038445317},{\"RMSE\":0.3767839265856469},{\"RMSE\":0.37668250113316104},{\"RMSE\":0.3765524781740265},{\"RMSE\":0.37647361893199355},{\"RMSE\":0.37632578617522994},{\"RMSE\":0.376240589445767},{\"RMSE\":0.3761199849611882},{\"RMSE\":0.376054942779515},{\"RMSE\":0.3759385621585882},{\"RMSE\":0.37582887059652637},{\"RMSE\":0.3757169638466731},{\"RMSE\":0.3756383950863192},{\"RMSE\":0.37553924431777824},{\"RMSE\":0.37541446842030096},{\"RMSE\":0.37530717618936726},{\"RMSE\":0.3751634645876691},{\"RMSE\":0.3750639416872357},{\"RMSE\":0.3749702915107144},{\"RMSE\":0.37483879380392765},{\"RMSE\":0.374723353188515},{\"RMSE\":0.37464309759688424},{\"RMSE\":0.3745491393821134},{\"RMSE\":0.3744808534806557},{\"RMSE\":0.3743987051992395},{\"RMSE\":0.3743153239863147},{\"RMSE\":0.374213952984404},{\"RMSE\":0.3741759930967907},{\"RMSE\":0.37411224304070806},{\"RMSE\":0.3739792620127815},{\"RMSE\":0.37388983108440504},{\"RMSE\":0.37375893757522627},{\"RMSE\":0.3736324718919069},{\"RMSE\":0.3734866442820237},{\"RMSE\":0.3734040187256939},{\"RMSE\":0.3733096162282509},{\"RMSE\":0.37322897624588297},{\"RMSE\":0.3731073876681305},{\"RMSE\":0.37300015024136385},{\"RMSE\":0.3728675627338353},{\"RMSE\":0.37279919914449505},{\"RMSE\":0.37268809466958763},{\"RMSE\":0.3725684926319492},{\"RMSE\":0.37248622752801225},{\"RMSE\":0.3723605167626115},{\"RMSE\":0.37224843223783965},{\"RMSE\":0.37215292953786766},{\"RMSE\":0.37203662034675267},{\"RMSE\":0.3719343336068328},{\"RMSE\":0.37184233728325483},{\"RMSE\":0.37177375293107306},{\"RMSE\":0.37171968748957795},{\"RMSE\":0.37165092395954974},{\"RMSE\":0.3715530028157546},{\"RMSE\":0.371448295478284},{\"RMSE\":0.3713548058473711},{\"RMSE\":0.371255930820979},{\"RMSE\":0.3711745287426094},{\"RMSE\":0.3711137048336054},{\"RMSE\":0.3710232512826825},{\"RMSE\":0.37090414759749674},{\"RMSE\":0.3706433752934371},{\"RMSE\":0.3705482312482991},{\"RMSE\":0.3704469294266663},{\"RMSE\":0.3703526650876106},{\"RMSE\":0.37024526855732703},{\"RMSE\":0.37016991220920026},{\"RMSE\":0.3700236116966873},{\"RMSE\":0.3699367926201974},{\"RMSE\":0.36980690266837496},{\"RMSE\":0.3697001251063516},{\"RMSE\":0.3696131433367387},{\"RMSE\":0.3694954505034457},{\"RMSE\":0.36936497162281967},{\"RMSE\":0.3692860131874957},{\"RMSE\":0.36920826101445464},{\"RMSE\":0.3691228796848249},{\"RMSE\":0.36904177745723016},{\"RMSE\":0.368960474544369},{\"RMSE\":0.36885058488867467},{\"RMSE\":0.36864708770236704},{\"RMSE\":0.36856953144533544},{\"RMSE\":0.36847341016760515},{\"RMSE\":0.36833488613779924},{\"RMSE\":0.3682311013898438},{\"RMSE\":0.3681325494184296},{\"RMSE\":0.368034167235467},{\"RMSE\":0.36795478670807674},{\"RMSE\":0.3678741950542226},{\"RMSE\":0.36783420195212474},{\"RMSE\":0.3677109222214713},{\"RMSE\":0.36762841207556474},{\"RMSE\":0.3675743672736545},{\"RMSE\":0.3674700311725166},{\"RMSE\":0.36735634338023787},{\"RMSE\":0.36724566271487824},{\"RMSE\":0.3671721139488463},{\"RMSE\":0.3670470073868451},{\"RMSE\":0.3669868471967154},{\"RMSE\":0.36686893524372544},{\"RMSE\":0.3667710565168133},{\"RMSE\":0.3666786046809546},{\"RMSE\":0.36658291706785834},{\"RMSE\":0.3665125960386783},{\"RMSE\":0.3663540149493594},{\"RMSE\":0.36623375855846324},{\"RMSE\":0.36612899540771976},{\"RMSE\":0.36604902373643916},{\"RMSE\":0.3659544180250899},{\"RMSE\":0.36587589967090567},{\"RMSE\":0.36579840786812445},{\"RMSE\":0.3657080543799661},{\"RMSE\":0.3655731572079649},{\"RMSE\":0.3654544396034302},{\"RMSE\":0.3653488809908491},{\"RMSE\":0.3652633993502615},{\"RMSE\":0.36518662987467015},{\"RMSE\":0.3651129270296062},{\"RMSE\":0.3650556002532598},{\"RMSE\":0.36494636731672186},{\"RMSE\":0.36484199575999343},{\"RMSE\":0.36475514594913033},{\"RMSE\":0.36463568635492677},{\"RMSE\":0.3645724307099569},{\"RMSE\":0.3644289473886832},{\"RMSE\":0.3643555129937711},{\"RMSE\":0.3642573547289337},{\"RMSE\":0.3642129895064693},{\"RMSE\":0.3640939492597133},{\"RMSE\":0.364011922876555},{\"RMSE\":0.36391018676079356},{\"RMSE\":0.36382160725326207},{\"RMSE\":0.3637239707727482},{\"RMSE\":0.36364717299934624},{\"RMSE\":0.36359373113714205},{\"RMSE\":0.3634398833096576},{\"RMSE\":0.36338054155417215},{\"RMSE\":0.3632901722506244},{\"RMSE\":0.36322280892324965},{\"RMSE\":0.36314372080428464},{\"RMSE\":0.3629954202383655},{\"RMSE\":0.3628998108639975},{\"RMSE\":0.362799465949025},{\"RMSE\":0.3627296932907981},{\"RMSE\":0.36264062031461725},{\"RMSE\":0.3625102319875098},{\"RMSE\":0.3624395287091122},{\"RMSE\":0.36237772471655166},{\"RMSE\":0.3623129146809601},{\"RMSE\":0.3621995034615382},{\"RMSE\":0.362136222088965},{\"RMSE\":0.36207637806813264},{\"RMSE\":0.36200322427546916},{\"RMSE\":0.3619710195958836},{\"RMSE\":0.36187815813413826},{\"RMSE\":0.36178402341739874},{\"RMSE\":0.36172319969472216},{\"RMSE\":0.36166906963503953},{\"RMSE\":0.3615544875035159},{\"RMSE\":0.36144614443128303},{\"RMSE\":0.3613464378291918},{\"RMSE\":0.36124727891920333},{\"RMSE\":0.36109056303244746},{\"RMSE\":0.36102389873675444},{\"RMSE\":0.36092701156480905},{\"RMSE\":0.3608199111077511},{\"RMSE\":0.3607592608611434},{\"RMSE\":0.36071023931033613},{\"RMSE\":0.3606209682963815},{\"RMSE\":0.36053344257146536},{\"RMSE\":0.36037910825804187},{\"RMSE\":0.360294271993075},{\"RMSE\":0.3602128783668172},{\"RMSE\":0.36014931625008384},{\"RMSE\":0.3600666588741288},{\"RMSE\":0.35991255569832104},{\"RMSE\":0.3598643417240643},{\"RMSE\":0.35977878808511},{\"RMSE\":0.35965753960060937},{\"RMSE\":0.35957419351899733},{\"RMSE\":0.35947054303742354},{\"RMSE\":0.3594124792293095},{\"RMSE\":0.35932559441354206},{\"RMSE\":0.3592614340597678},{\"RMSE\":0.359144751743685},{\"RMSE\":0.35909259339012867},{\"RMSE\":0.3589957622352629},{\"RMSE\":0.35892779527922236},{\"RMSE\":0.35879485358810986},{\"RMSE\":0.35868092414337427},{\"RMSE\":0.3586001530381609},{\"RMSE\":0.3585603767863131},{\"RMSE\":0.3584687875659405},{\"RMSE\":0.3584261667121776},{\"RMSE\":0.3583432658293399},{\"RMSE\":0.35825531861184207},{\"RMSE\":0.3581825253218409},{\"RMSE\":0.3580853374735447},{\"RMSE\":0.35800485314930147},{\"RMSE\":0.3578983819982453},{\"RMSE\":0.35782790841139156},{\"RMSE\":0.3577768348885907},{\"RMSE\":0.35773366815824037},{\"RMSE\":0.357675623622644},{\"RMSE\":0.357601086144359},{\"RMSE\":0.35749663527783315},{\"RMSE\":0.3574179743480229},{\"RMSE\":0.3572998361134392},{\"RMSE\":0.3572421187391846},{\"RMSE\":0.35715852206236065},{\"RMSE\":0.3571047721366732},{\"RMSE\":0.3570004993967062},{\"RMSE\":0.3569166944615504},{\"RMSE\":0.3568608276429281},{\"RMSE\":0.35679724147371106},{\"RMSE\":0.3567145652657368},{\"RMSE\":0.35664679508932945},{\"RMSE\":0.3565868208777099},{\"RMSE\":0.3564965600651808},{\"RMSE\":0.3563979181166263},{\"RMSE\":0.35628437431088766},{\"RMSE\":0.3561936952240334},{\"RMSE\":0.3561317108651814},{\"RMSE\":0.35599531413594715},{\"RMSE\":0.3559162695999011},{\"RMSE\":0.3558428954712606},{\"RMSE\":0.3557432541723499},{\"RMSE\":0.35562921383213586},{\"RMSE\":0.3555374578222258},{\"RMSE\":0.35545858599571856},{\"RMSE\":0.3553833278007467},{\"RMSE\":0.3553309519768047},{\"RMSE\":0.3552552467019531},{\"RMSE\":0.35519608415712955},{\"RMSE\":0.3550826955328052},{\"RMSE\":0.35497218889496457},{\"RMSE\":0.3548713606862144},{\"RMSE\":0.3548131594534439},{\"RMSE\":0.3547276326287685},{\"RMSE\":0.3546431946542605},{\"RMSE\":0.35450502409969487},{\"RMSE\":0.35445130013978643},{\"RMSE\":0.3543762700068418},{\"RMSE\":0.35431436781017284},{\"RMSE\":0.35426122067180815},{\"RMSE\":0.3542011524387595},{\"RMSE\":0.35413691470244196},{\"RMSE\":0.35409030949064174},{\"RMSE\":0.35394202041096273},{\"RMSE\":0.35385398838883003},{\"RMSE\":0.35379596940766644},{\"RMSE\":0.35370780492347476},{\"RMSE\":0.3536172954119569},{\"RMSE\":0.35354480504000224},{\"RMSE\":0.3534819433915781},{\"RMSE\":0.35334517644227814},{\"RMSE\":0.3532576327913798},{\"RMSE\":0.3531684419869233},{\"RMSE\":0.3530757148122987},{\"RMSE\":0.3529854020393975},{\"RMSE\":0.3528695313730258},{\"RMSE\":0.3527203187873831},{\"RMSE\":0.352614737259128},{\"RMSE\":0.3524629298864369},{\"RMSE\":0.35235377822679737},{\"RMSE\":0.35225547287703984},{\"RMSE\":0.35220935148522664},{\"RMSE\":0.35216425721972},{\"RMSE\":0.35206558192091375},{\"RMSE\":0.35196797180401557},{\"RMSE\":0.3518869764185402},{\"RMSE\":0.3518358920637556},{\"RMSE\":0.3517687566464884},{\"RMSE\":0.35168411655962145},{\"RMSE\":0.35163801124764626},{\"RMSE\":0.3515557961254975},{\"RMSE\":0.35148460920320695},{\"RMSE\":0.35136469281628896},{\"RMSE\":0.3513054450816365},{\"RMSE\":0.3512509967993689},{\"RMSE\":0.35116906290006095},{\"RMSE\":0.3510993119815205},{\"RMSE\":0.351041302127447},{\"RMSE\":0.3509682480245174},{\"RMSE\":0.35091844560220103},{\"RMSE\":0.3508709485391106},{\"RMSE\":0.3508215695608021},{\"RMSE\":0.35074018605972257},{\"RMSE\":0.3506467783838371},{\"RMSE\":0.3505796050471899},{\"RMSE\":0.3505004719426494},{\"RMSE\":0.35042718473897566},{\"RMSE\":0.3503516015628018},{\"RMSE\":0.3503048090763875},{\"RMSE\":0.35023157093777196},{\"RMSE\":0.3501359113409275},{\"RMSE\":0.3500570349472671},{\"RMSE\":0.3500105729924593},{\"RMSE\":0.3499470812643828},{\"RMSE\":0.3498928655115299},{\"RMSE\":0.34982420392530467},{\"RMSE\":0.3497459371706114}],\"test_best_error\":[]}}"
    },
  "oblivious_trees":
    [
      {
        "leaf_values":
          [
            0.027773701982573833,
            0,
            0.091346484809092299,
            0.11569450753720131,
            -0.019156246621683973,
            0,
            0.04570018487154108,
            0.10169054707103968,
            0,
            0,
            0,
            0.14616462980194195,
            0,
            0,
            0,
            0.16748352929065757,
            -0.054276277117121088,
            0,
            0.002249247966215629,
            0.045901172447057423,
            -0.068463936777696466,
            0,
            -0.018131650764441003,
            0.043376686453090618,
            0,
            0,
            0,
            0.079981159940359703,
            0,
            0,
            0,
            0.11743111505559511,
            -0.010943771038371202,
            0,
            0.04813811636226973,
            0.11033847590017118,
            -0.049736631493955019,
            0,
            -0.012263767402216264,
            0.047047074314967387,
            0,
            0,
            0,
            0.15382418344816032,
            0,
            0,
            0,
            0.14920565000595967,
            -0.061137791617459643,
            0,
            -0.033146756042366339,
            0.017342730006787915,
            -0.072723387580713048,
            0,
            -0.042090385656463787,
            -0.004750169818700134,
            0,
            0,
            0,
            0.071461608490933609,
            0,
            0,
            0,
            0.036117267556335264
          ],
        "leaf_weights":
          [
            267,
            0,
            313,
            127,
            280,
            0,
            307,
            163,
            0,
            0,
            0,
            30,
            0,
            0,
            0,
            80,
            256,
            0,
            113,
            14,
            373,
            0,
            269,
            107,
            0,
            0,
            0,
            4,
            0,
            0,
            0,
            11,
            1568,
            0,
            1336,
            490,
            4957,
            0,
            4029,
            2395,
            0,
            0,
            0,
            131,
            0,
            0,
            0,
            776,
            487,
            0,
            148,
            31,
            757,
            0,
            583,
            221,
            0,
            0,
            0,
            6,
            0,
            0,
            0,
            11
          ],
        "splits":
          [
            {
              "border":4.9554500579833984,
              "float_feature_index":0,
              "split_index":142,
              "split_type":"FloatFeature"
            },
            {
              "border":3.2491998672485352,
              "float_feature_index":0,
              "split_index":79,
              "split_type":"FloatFeature"
            },
            {
              "border":2.4435436725616455,
              "float_feature_index":5,
              "split_index":731,
              "split_type":"FloatFeature"
            },
            {
              "border":7.2744503021240234,
              "float_feature_index":0,
              "split_index":179,
              "split_type":"FloatFeature"
            },
            {
              "border":37.955001831054688,
              "float_feature_index":6,
              "split_index":1032,
              "split_type":"FloatFeature"
            },
            {
              "border":-122.20500183105469,
              "float_feature_index":7,
              "split_index":1101,
              "split_type":"FloatFeature"
            }
          ]
      },
      {
        "leaf_values":
          [
            -0.02284985082474205,
            0,
            0.026220940735753449,
            0.1055266064049399,
            -0.046092865462736443,
            0,
            -0.0060569524066495049,
            0.080460606880054367,
            0,
            0,
            0,
            0,
            0,
            0,
            0,
            0,
            -0.050467429917409518,
            0,
            -0.0048750292070392403,
            0.0096779474010948684,
            -0.059469269148798166,
            0,
            -0.020511140234154415,
            0.036003456492982193,
            0,
            0,
            0,
            0,
            0,
            0,
            0,
            0,
            0.0051653207135019643,
            0,
            0.078920269741346832,
            0.15086695785380663,
            -0.041250080206002099,
            0,
            0.0096616341849353714,
            0.097569212612677661,
            0.021355563862896328,
            0,
            0.091192243931887504,
            0.14844221185638473,
            -0.039627134136713642,
            0,
            0.013796095301102426,
            0.13430426438731363,
            -0.052502796948817147,
            0,
            -0.0031829956484663675,
            0.055817234568635167,
            -0.066475591746339852,
            0,
            -0.022847689583318401,
            0.041401117711967139,
            -0.052891348478807457,
            0,
            -0.0050506632433690536,
            0.060058460174686717,
            -0.065742290630204619,
            0,
            -0.019915553719079337,
            0.058339289233379103
          ],
        "leaf_weights":
          [
            706,
            0,
            511,
            101,
            1582,
            0,
            1668,
            950,
            0,
            0,
            0,
            0,
            0,
            0,
            0,
            0,
            316,
            0,
            73,
            7,
            583,
            0,
            553,
            88,
            0,
            0,
            0,
            0,
            0,
            0,
            0,
            0,
            479,
            0,
            206,
            44,
            1239,
            0,
            932,
            477,
            954,
            0,
            798,
            193,
            3503,
            0,
            2331,
            667,
            124,
            0,
            15,
            4,
            293,
            0,
            174,
            20,
            294,
            0,
            86,
            6,
            491,
            0,
            149,
            23
          ],
        "splits":
          [
            {
              "border":5.8310003280639648,
              "float_feature_index":0,
              "split_index":161,
              "split_type":"FloatFeature"
            },
            {
              "border":3.5785000324249268,
              "float_feature_index":0,
              "split_index":95,
              "split_type":"FloatFeature"
            },
            {
              "border":2.4105963706970215,
              "float_feature_index":5,
              "split_index":726,
              "split_type":"FloatFeature"
            },
            {
              "border":30.5,
              "float_feature_index":1,
              "split_index":217,
              "split_type":"FloatFeature"
            },
            {
              "border":37.965000152587891,
              "float_feature_index":6,
              "split_index":1033,
              "split_type":"FloatFeature"
            },
            {
              "border":22.5,
              "float_feature_index":1,
              "split_index":209,
              "split_type":"FloatFeature"
            }
          ]
      },
      {
        "leaf_values":
          [
            -0.0057949815278925667,
            0,
            0.052133783202019425,
            0.093575962760551648,
            -0.043291865506436676,
            0,
            -0.0061155452190671828,
            0.040909107027472399,
            0,
            0,
            0,
            0.1258966848724383,
            0,
            0,
            0,
            0.12091067752769194,
            -0.046842134916439473,
            0,
            -0.019991559940931783,
            0.023113692006294026,
            -0.062966013373024529,
            0,
            -0.031852098929882375,
            0.0081011847810109894,
            0,
            0,
            0,
            0.022773430701657438,
            0,
            0,
            0,
            0.056119898897973274,
            -0.0057086855701938416,
            0,
            0.058244235236715527,
            0.11494185182651462,
            -0.045040538366598826,
            0,
            -0.0047573993661624786,
            0.049918961329316738,
            0,
            0,
            0,
            0.13909378014893176,
            0,
            0,
            0,
            0.12999919125867729,
            -0.054121844660174383,
            0,
            -0.02305341061771574,
            0.016118295493917748,
            -0.065705397081686545,
            0,
            -0.027524095968654405,
            0.012161956492433918,
            0,
            0,
            0,
            0.041187208096365779,
            0,
            0,
            0,
            0.051415254183504677
          ],
        "leaf_weights":
          [
            685,
            0,
            880,
            190,
            3170,
            0,
            4425,
            2011,
            0,
            0,
            0,
            79,
            0,
            0,
            0,
            1089,
            201,
            0,
            76,
            8,
            521,
            0,
            607,
            138,
            0,
            0,
            0,
            2,
            0,
            0,
            0,
            24,
            553,
            0,
            554,
            125,
            2116,
            0,
            1419,
            390,
            0,
            0,
            0,
            50,
            0,
            0,
            0,
            201,
            180,
            0,
            37,
            4,
            555,
            0,
            307,
            36,
            0,
            0,
            0,
            2,
            0,
            0,
            0,
            5
          ],
        "splits":
          [
            {
              "border":5.0429000854492188,
              "float_feature_index":0,
              "split_index":143,
              "split_type":"FloatFeature"
            },
            {
              "border":3.0940499305725098,
              "float_feature_index":0,
              "split_index":68,
              "split_type":"FloatFeature"
            },
            {
              "border":2.287135124206543,
