{
  "features_info":
    {
      "float_features":
        [
          {
            "borders":
              [
                0.86629998683929443,
                1.0146499872207642,
                1.124000072479248,
                1.198199987411499,
                1.3192499876022339,
                1.5703999996185303,
                1.6258499622344971,
                1.892300009727478,
                1.9529500007629395,
                2.1096999645233154,
                2.4175000190734863,
                2.4370999336242676,
                2.507850170135498,
                2.6027998924255371,
                2.7000999450683594,
                2.7140998840332031,
                2.7287998199462891,
                2.7632999420166016,
                2.780750036239624,
                2.9379501342773438,
                3.0412998199462891,
                3.1242499351501465,
                3.1483500003814697,
                3.2086501121520996,
                3.2227001190185547,
                3.2354001998901367,
                3.2491998672485352,
                3.2640500068664551,
                3.3152499198913574,
                3.3677000999450684,
                3.4146499633789063,
                3.6626999378204346,
                3.7076501846313477,
                3.890200138092041,
                4.0072498321533203,
                4.0497503280639648,
                4.1798496246337891,
                4.250999927520752,
                4.3208503723144531,
                4.4370999336242676,
                4.533900260925293,
                4.6021003723144531,
                4.9554500579833984,
                5.0429000854492188,
                5.1441001892089844,
                5.4463996887207031,
                5.5928497314453125,
                5.8310003280639648,
                5.9530496597290039,
                6.3754997253417969,
                6.4598498344421387,
                6.8678503036499023,
                7.2744503021240234,
                7.7543001174926758,
                7.9130001068115234,
                8.5947494506835938,
                9.0254993438720703,
                9.8120994567871094
              ],
            "feature_id":"",
            "feature_index":0,
            "flat_feature_index":0,
            "has_nans":false,
            "nan_value_treatment":"AsIs"
          },
          {
            "borders":
              [
                2.5,
                3.5,
                4.5,
                6.5,
                10.5,
                12.5,
                14.5,
                16.5,
                17.5,
                19.5,
                20.5,
                21.5,
                22.5,
                23.5,
                26.5,
                27.5,
                29.5,
                30.5,
                31.5,
                32.5,
                34.5,
                35.5,
                37.5,
                38.5,
                40.5,
                45.5,
                46.5,
                50.5,
                51.5
              ],
            "feature_id":"",
            "feature_index":1,
            "flat_feature_index":1,
            "has_nans":false,
            "nan_value_treatment":"AsIs"
          },
          {
            "borders":
              [
                2.2333204746246338,
                2.4927339553833008,
                2.6602866649627686,
                2.8007781505584717,
                2.9218525886535645,
                3.0425007343292236,
                3.1240673065185547,
                3.4041919708251953,
                3.5508620738983154,
                3.5861310958862305,
                3.6434144973754883,
                3.9653720855712891,
                3.9860286712646484,
                4.024540901184082,
                4.3065519332885742,
                4.4268503189086914,
                4.7564582824707031,
                4.8433537483215332,
                5.0569114685058594,
                5.1672043800354004,
                5.2766728401184082,
                5.3012933731079102,
                5.3347558975219727,
                5.4698104858398438,
                5.4817185401916504,
                5.5111322402954102,
                5.5509204864501953,
                5.8094110488891602,
                5.8381547927856445,
                5.8505325317382813,
                5.8647289276123047,
                5.9452304840087891,
                6.0171494483947754,
                6.1011571884155273,
                6.3300662040710449,
                6.5031013488769531,
                6.5292577743530273,
                6.7256779670715332,
                6.8298006057739258,
                6.8688335418701172,
                7.5488138198852539,
                7.6246929168701172,
                7.9057903289794922,
                18.42437744140625
              ],
            "feature_id":"",
            "feature_index":2,
            "flat_feature_index":2,
            "has_nans":false,
            "nan_value_treatment":"AsIs"
          },
          {
            "borders":
              [
                0.81103825569152832,
                0.85658347606658936,
                0.88008511066436768,
                0.9213787317276001,
                0.9723588228225708,
                0.97509241104125977,
                0.97771173715591431,
                1.0122437477111816,
                1.0136665105819702,
                1.0144658088684082,
                1.0179564952850342,
                1.0288355350494385,
                1.0507670640945435,
                1.0532870292663574,
                1.0877058506011963,
                1.0923833847045898,
                1.0994961261749268,
                1.1041176319122314,
                1.110220193862915,
                1.12201988697052,
                1.1289025545120239,
                1.1475064754486084,
                1.1616463661193848,
                1.1950787305831909,
                1.207337498664856,
                1.2142513990402222,
                1.2435340881347656,
                1.2572181224822998,
                1.2694377899169922,
                1.3646875619888306,
                1.4099396467208862,
                1.5140371322631836,
                2.3539209365844727
              ],
            "feature_id":"",
            "feature_index":3,
            "flat_feature_index":3,
            "has_nans":false,
            "nan_value_treatment":"AsIs"
          },
          {
            "borders":
              [
                39.5,
                68.5,
                101.5,
                137.5,
                166.5,
                197.5,
                270.5,
                294.5,
                331.5,
                351.5,
                475.5,
                514.5,
                542.5,
                640.5,
                649.5,
                657.5,
                799.5,
                883.5,
                917.5,
                946.5,
                1064.5,
                1070.5,
                1305.5,
                1313.5,
                1446.5,
                1484.5,
                1793.5,
                1994.5,
                2190.5,
                2471.5,
                2817.5
              ],
            "feature_id":"",
            "feature_index":4,
            "flat_feature_index":4,
            "has_nans":false,
            "nan_value_treatment":"AsIs"
          },
          {
            "borders":
              [
                1.4150233268737793,
                1.5643069744110107,
                1.6086692810058594,
                1.6521791219711304,
                1.6929991245269775,
                1.7910717725753784,
                1.8380742073059082,
                1.929201602935791,
                1.9465794563293457,
                1.9615679979324341,
                1.9760794639587402,
                2.0404043197631836,
                2.068408727645874,
                2.093332052230835,
                2.1088123321533203,
                2.1345722675323486,
                2.1483538150787354,
                2.1693820953369141,
                2.1896557807922363,
                2.2237401008605957,
                2.2786266803741455,
                2.3021683692932129,
                2.3293976783752441,
                2.3969831466674805,
                2.4036154747009277,
                2.4364228248596191,
                2.4435436725616455,
                2.4499444961547852,
                2.5249786376953125,
                2.5314545631408691,
                2.5900344848632813,
                2.600522518157959,
                2.6532983779907227,
                2.6888551712036133,
                2.7519397735595703,
                2.7586708068847656,
                2.7640571594238281,
                2.7809219360351563,
                2.7943737506866455,
                2.9313516616821289,
                2.957176685333252,
                3.0090720653533936,
                3.0441794395446777,
                3.2265005111694336,
                3.2649359703063965,
                3.3751332759857178,
                3.509580135345459,
                3.7284832000732422,
                3.9899153709411621,
                4.0298910140991211,
                4.2847490310668945,
                4.4717555046081543,
                4.6083478927612305,
                6.4675531387329102
              ],
            "feature_id":"",
            "feature_index":5,
            "flat_feature_index":5,
            "has_nans":false,
            "nan_value_treatment":"AsIs"
          },
          {
            "borders":
              [
                32.705001831054688,
                32.724998474121094,
                32.745002746582031,
                32.845001220703125,
                33.034999847412109,
                33.104999542236328,
                33.514999389648438,
                33.604999542236328,
                33.614997863769531,
                33.635002136230469,
                33.674999237060547,
                33.694999694824219,
                33.715000152587891,
                33.745002746582031,
                33.764999389648438,
                33.775001525878906,
                33.834999084472656,
                33.845001220703125,
                33.864997863769531,
                33.875,
                33.895000457763672,
                33.904998779296875,
                33.924999237060547,
                33.985000610351563,
                34.004997253417969,
                34.034999847412109,
                34.044998168945313,
                34.084999084472656,
                34.145000457763672,
                34.154998779296875,
                34.165000915527344,
                34.174999237060547,
                34.194999694824219,
                34.235000610351563,
                34.245002746582031,
                34.514999389648438,
                34.625,
                34.694999694824219,
                35.275001525878906,
                35.325000762939453,
                35.724998474121094,
                36.584999084472656,
                36.754997253417969,
                36.784999847412109,
                37.224998474121094,
                37.245002746582031,
                37.254997253417969,
                37.404998779296875,
                37.455001831054688,
                37.514999389648438,
                37.575000762939453,
                37.595001220703125,
                37.614997863769531,
                37.645000457763672,
                37.665000915527344,
                37.724998474121094,
                37.754997253417969,
                37.764999389648438,
                37.775001525878906,
                37.784999847412109,
                37.805000305175781,
                37.81500244140625,
                37.854999542236328,
                37.915000915527344,
                37.924999237060547,
                37.955001831054688,
                38.004997253417969,
                38.104999542236328,
                38.125,
                38.424999237060547,
                38.534999847412109,
                38.555000305175781,
                38.56500244140625,
                38.674999237060547,
                38.705001831054688,
                38.885002136230469,
                39.044998168945313,
                39.264999389648438,
                39.764999389648438,
                40.075000762939453
              ],
            "feature_id":"",
            "feature_index":6,
            "flat_feature_index":6,
            "has_nans":false,
            "nan_value_treatment":"AsIs"
          },
          {
            "borders":
              [
                -123.70500183105469,
                -122.44499969482422,
                -122.43499755859375,
                -122.40499877929688,
                -122.39500427246094,
                -122.36500549316406,
                -122.32499694824219,
                -122.27499389648438,
                -122.2449951171875,
                -122.20500183105469,
                -122.05500030517578,
                -122.02499389648438,
                -122.01499938964844,
                -121.94499969482422,
                -121.92500305175781,
                -121.91500091552734,
                -121.86500549316406,
                -121.73500061035156,
                -121.54499816894531,
                -121.5050048828125,
                -121.43499755859375,
                -121.41500091552734,
                -121.36500549316406,
                -121.28500366210938,
                -121.23500061035156,
                -121.02499389648438,
                -120.90499877929688,
                -120.61500549316406,
                -120.5050048828125,
                -120.06500244140625,
                -119.85499572753906,
                -119.78500366210938,
                -119.70500183105469,
                -119.38499450683594,
                -119.27499389648438,
                -119.22500610351563,
                -119.17500305175781,
                -118.58499908447266,
                -118.51499938964844,
                -118.41500091552734,
                -118.39500427246094,
                -118.38499450683594,
                -118.375,
                -118.36500549316406,
                -118.34500122070313,
                -118.32499694824219,
                -118.30500030517578,
                -118.29499816894531,
                -118.28500366210938,
                -118.27499389648438,
                -118.22500610351563,
                -118.21499633789063,
                -118.18499755859375,
                -118.16500091552734,
                -118.15499877929688,
                -118.11500549316406,
                -118.02499389648438,
                -118.01499938964844,
                -117.9949951171875,
                -117.93499755859375,
                -117.91500091552734,
                -117.875,
                -117.84500122070313,
                -117.80500030517578,
                -117.78500366210938,
                -117.76499938964844,
                -117.7449951171875,
                -117.69499969482422,
                -117.67500305175781,
                -117.55500030517578,
                -117.47500610351563,
                -117.38499450683594,
                -117.35499572753906,
                -117.2550048828125,
                -117.2449951171875,
                -117.23500061035156,
                -117.17500305175781,
                -117.16500091552734,
                -117.14500427246094,
                -117.125,
                -117.11500549316406,
                -117.02499389648438,
                -116.61500549316406,
                -116.40499877929688,
                -116.1300048828125
              ],
            "feature_id":"",
            "feature_index":7,
            "flat_feature_index":7,
            "has_nans":false,
            "nan_value_treatment":"AsIs"
          }
        ]
    },
  "model_info":
    {
      "catboost_version_info":"Git info:\n    Commit: 98df6bf8d4e6ab054b75b727f8d758c3399f4867\n    Branch: heads/master\n    Author: snermolaev <snermolaev@yandex-team.com>\n    Summary: get rid of six faeb2c69960c197db9fc9c5d0696d6dc0ce3d74a\n    git-svn info:\n    Last Changed Rev: 9293085\n\nOther info:\n    Build by: zomb-ml-platform-msk\n    Top src dir: /Users/zomb-ml-platform-msk/go-agent-21.2.0/pipelines/BuildMaster/catboost.git\n",
      "model_guid":"7f1ee332-ac1cd01c-567ced26-22d94669",
      "output_options":"{\"name\":\"experiment\",\"verbose\":0,\"test_error_log\":\"test_error.tsv\",\"json_log\":\"catboost_training.json\",\"result_model_file\":\"model\",\"roc_file\":\"\",\"eval_file_name\":\"\",\"use_best_model\":false,\"allow_writing_files\":true,\"prediction_type\":[\"RawFormulaVal\"],\"fstr_internal_file\":\"\",\"output_columns\":[\"SampleId\",\"RawFormulaVal\",\"Label\"],\"snapshot_interval\":600,\"time_left_log\":\"time_left.tsv\",\"fstr_type\":\"FeatureImportance\",\"profile_log\":\"catboost_profile.log\",\"train_dir\":\"catboost_info\",\"learn_error_log\":\"learn_error.tsv\",\"training_options_file\":\"\",\"snapshot_file\":\"experiment.cbsnapshot\",\"save_snapshot\":false,\"model_format\":[\"CatboostBinary\"],\"final_feature_calcer_computation_mode\":\"Default\",\"metric_period\":1,\"output_borders\":\"\",\"final_ctr_computation_mode\":\"Default\",\"best_model_min_trees\":1,\"fstr_regular_file\":\"\"}",
      "params":
        {
          "boosting_options":
            {
              "approx_on_full_history":false,
              "boost_from_average":true,
              "boosting_type":"Plain",
              "fold_len_multiplier":2,
              "fold_permutation_block":0,
              "iterations":100,
              "learning_rate":0.42944100499153137,
              "model_shrink_mode":"Constant",
              "model_shrink_rate":0,
              "od_config":
                {
                  "stop_pvalue":0,
                  "type":"None",
                  "wait_iterations":20
                },
              "permutation_count":4,
              "posterior_sampling":false
            },
          "cat_feature_params":
            {
              "combinations_ctrs":
                [
                  {
                    "ctr_binarization":
                      {
                        "border_count":15,
                        "border_type":"Uniform"
                      },
                    "ctr_type":"Borders",
                    "prior_estimation":"No",
                    "priors":
                      [
                        [
                          0,
                          1
                        ],
                        [
                          0.5,
                          1
                        ],
                        [
                          1,
                          1
                        ]
                      ],
                    "target_binarization":
                      {
                        "border_count":1,
                        "border_type":"MinEntropy"
                      }
                  },
                  {
                    "ctr_binarization":
                      {
                        "border_count":15,
                        "border_type":"Uniform"
                      },
                    "ctr_type":"Counter",
                    "prior_estimation":"No",
                    "priors":
                      [
                        [
                          0,
                          1
                        ]
                      ]
                  }
                ],
              "counter_calc_method":"SkipTest",
              "ctr_leaf_count_limit":18446744073709551615,
              "max_ctr_complexity":1,
              "one_hot_max_size":2,
              "per_feature_ctrs":
                {
                },
              "simple_ctrs":
                [
                  {
                    "ctr_binarization":
                      {
                        "border_count":15,
                        "border_type":"Uniform"
                      },
                    "ctr_type":"Borders",
                    "prior_estimation":"No",
                    "priors":
                      [
                        [
                          0,
                          1
                        ],
                        [
                          0.5,
                          1
                        ],
                        [
                          1,
                          1
                        ]
                      ],
                    "target_binarization":
                      {
                        "border_count":1,
                        "border_type":"MinEntropy"
                      }
                  },
                  {
                    "ctr_binarization":
                      {
                        "border_count":15,
                        "border_type":"Uniform"
                      },
                    "ctr_type":"Counter",
                    "prior_estimation":"No",
                    "priors":
                      [
                        [
                          0,
                          1
                        ]
                      ]
                  }
                ],
              "store_all_simple_ctr":false,
              "target_binarization":
                {
                  "border_count":1,
                  "border_type":"MinEntropy"
                }
            },
          "data_processing_options":
            {
              "allow_const_label":false,
              "auto_class_weights":"None",
              "class_names":
                [
                ],
              "class_weights":
                [
                ],
              "classes_count":0,
              "dev_default_value_fraction_for_sparse":0.82999998331069946,
              "dev_group_features":false,
              "dev_leafwise_scoring":false,
              "dev_sparse_array_indexing":"Indices",
              "embedding_processing_options":
                {
                  "embedding_processing":
                    {
                      "default":
                        [
                          "LDA",
                          "KNN"
                        ]
                    }
                },
              "eval_fraction":0,
              "float_features_binarization":
                {
                  "border_count":254,
                  "border_type":"GreedyLogSum",
                  "dev_max_subset_size_for_build_borders":200000,
                  "nan_mode":"Min"
                },
              "force_unit_auto_pair_weights":false,
              "has_time":false,
              "ignored_features":
                [
                ],
              "per_float_feature_quantization":
                {
                },
              "target_border":null,
              "text_processing_options":
                {
                  "dictionaries":
                    [
                      {
                        "dictionary_id":"BiGram",
                        "end_of_sentence_token_policy":"Skip",
                        "end_of_word_token_policy":"Insert",
                        "gram_order":"2",
                        "max_dictionary_size":"50000",
                        "occurrence_lower_bound":"5",
                        "skip_step":"0",
                        "start_token_id":"0",
                        "token_level_type":"Word"
                      },
                      {
                        "dictionary_id":"Word",
                        "end_of_sentence_token_policy":"Skip",
                        "end_of_word_token_policy":"Insert",
                        "gram_order":"1",
                        "max_dictionary_size":"50000",
                        "occurrence_lower_bound":"5",
                        "skip_step":"0",
                        "start_token_id":"0",
                        "token_level_type":"Word"
                      }
                    ],
                  "feature_processing":
                    {
                      "default":
                        [
                          {
                            "dictionaries_names":
                              [
                                "BiGram",
                                "Word"
                              ],
                            "feature_calcers":
                              [
                                "BoW"
                              ],
                            "tokenizers_names":
                              [
                                "Space"
                              ]
                          }
                        ]
                    },
                  "tokenizers":
                    [
                      {
                        "delimiter":" ",
                        "languages":
                          [
                          ],
                        "lemmatizing":"0",
                        "lowercasing":"0",
                        "number_process_policy":"LeaveAsIs",
                        "number_token":"🔢",
                        "separator_type":"ByDelimiter",
                        "skip_empty":"1",
                        "split_by_set":"0",
                        "subtokens_policy":"SingleToken",
                        "token_types":
                          [
                            "Number",
                            "Unknown",
                            "Word"
                          ],
                        "tokenizer_id":"Space"
                      }
                    ]
                }
            },
          "detailed_profile":false,
          "flat_params":
            {
              "depth":6,
              "iterations":100,
              "loss_function":"RMSE",
              "verbose":0
            },
          "logging_level":"Silent",
          "loss_function":
            {
              "params":
                {
                },
              "type":"RMSE"
            },
          "metadata":
            {
            },
          "metrics":
            {
              "custom_metrics":
                [
                ],
              "eval_metric":
                {
                  "params":
                    {
                    },
                  "type":"RMSE"
                },
              "objective_metric":
                {
                  "params":
                    {
                    },
                  "type":"RMSE"
                }
            },
          "pool_metainfo_options":
            {
              "tags":
                {
                }
            },
          "random_seed":0,
          "system_options":
            {
              "file_with_hosts":"hosts.txt",
              "node_port":0,
              "node_type":"SingleHost",
              "thread_count":10,
              "used_ram_limit":""
            },
          "task_type":"CPU",
          "tree_learner_options":
            {
              "bayesian_matrix_reg":0.10000000149011612,
              "bootstrap":
                {
                  "mvs_reg":null,
                  "subsample":0.80000001192092896,
                  "type":"MVS"
                },
              "depth":6,
              "dev_efb_max_buckets":1024,
              "dev_leafwise_approxes":false,
              "dev_score_calc_obj_block_size":5000000,
              "grow_policy":"SymmetricTree",
              "l2_leaf_reg":3,
              "leaf_estimation_backtracking":"AnyImprovement",
              "leaf_estimation_iterations":1,
              "leaf_estimation_method":"Newton",
              "max_leaves":64,
              "min_data_in_leaf":1,
              "model_size_reg":0.5,
              "monotone_constraints":
                {
                },
              "penalties":
                {
                  "feature_weights":
                    {
                    },
                  "first_feature_use_penalties":
                    {
                    },
                  "penalties_coefficient":1,
                  "per_object_feature_penalties":
                    {
                    }
                },
              "random_score_type":"NormalWithModelSizeDecrease",
              "random_strength":1,
              "rsm":1,
              "sampling_frequency":"PerTree",
              "score_function":"Cosine",
              "sparse_features_conflict_fraction":0
            }
        },
      "train_finish_time":"2025-02-28T06:45:47Z",
      "training":"{\"metrics\":{\"learn_best_error\":{\"RMSE\":0.39267610992506713},\"test_metrics_history\":[],\"learn_metrics_history\":[{\"RMSE\":0.9048488742396603},{\"RMSE\":0.7783234510895016},{\"RMSE\":0.7008111568550675},{\"RMSE\":0.6602505776989349},{\"RMSE\":0.6219463054918895},{\"RMSE\":0.6064246187865318},{\"RMSE\":0.5847102054598745},{\"RMSE\":0.5765208507205053},{\"RMSE\":0.5638627395949772},{\"RMSE\":0.5581449192942768},{\"RMSE\":0.5511864697499097},{\"RMSE\":0.5436391733110644},{\"RMSE\":0.5371222935989385},{\"RMSE\":0.5311867093927664},{\"RMSE\":0.5284023402325376},{\"RMSE\":0.5243428342931827},{\"RMSE\":0.5198523609163872},{\"RMSE\":0.5170602355942308},{\"RMSE\":0.5136693317248735},{\"RMSE\":0.5106597684921131},{\"RMSE\":0.5082120261026484},{\"RMSE\":0.5061348936467729},{\"RMSE\":0.5023289770565706},{\"RMSE\":0.4970194731098184},{\"RMSE\":0.49442428631886315},{\"RMSE\":0.4918984577761929},{\"RMSE\":0.489321047937116},{\"RMSE\":0.486785633769731},{\"RMSE\":0.4842230820130316},{\"RMSE\":0.4814155111100998},{\"RMSE\":0.47954208233315615},{\"RMSE\":0.47450637705778487},{\"RMSE\":0.4718176254529684},{\"RMSE\":0.46918088733585667},{\"RMSE\":0.46740998965914565},{\"RMSE\":0.4655063880429861},{\"RMSE\":0.463779226105444},{\"RMSE\":0.4618551690054268},{\"RMSE\":0.459272165511135},{\"RMSE\":0.45729920051437273},{\"RMSE\":0.4555828215738976},{\"RMSE\":0.454177377283686},{\"RMSE\":0.4529682403248551},{\"RMSE\":0.45136852163635477},{\"RMSE\":0.44964165122379446},{\"RMSE\":0.4478780361082356},{\"RMSE\":0.4462169605080193},{\"RMSE\":0.4445067345208412},{\"RMSE\":0.4434273109800336},{\"RMSE\":0.4421415405501362},{\"RMSE\":0.44091518343447383},{\"RMSE\":0.43946282578412893},{\"RMSE\":0.43750185081607085},{\"RMSE\":0.43648331232922116},{\"RMSE\":0.4354888163736464},{\"RMSE\":0.43430196885690303},{\"RMSE\":0.4332369135388416},{\"RMSE\":0.4323279527490259},{\"RMSE\":0.4308816658964192},{\"RMSE\":0.4298423079259929},{\"RMSE\":0.42929835428824886},{\"RMSE\":0.42836787786268693},{\"RMSE\":0.4277655170218158},{\"RMSE\":0.4265355558707581},{\"RMSE\":0.424517259176576},{\"RMSE\":0.4234423981839409},{\"RMSE\":0.4226846413451529},{\"RMSE\":0.42156048784285444},{\"RMSE\":0.4206959123881085},{\"RMSE\":0.4194657699165642},{\"RMSE\":0.4184834561700672},{\"RMSE\":0.41720314349587984},{\"RMSE\":0.41595716275514905},{\"RMSE\":0.4144962694388772},{\"RMSE\":0.4138146279488509},{\"RMSE\":0.41320543969529827},{\"RMSE\":0.4121901485486002},{\"RMSE\":0.4109835306479379},{\"RMSE\":0.41032670409457306},{\"RMSE\":0.40958969110454063},{\"RMSE\":0.4087499950080072},{\"RMSE\":0.40769006080411246},{\"RMSE\":0.4067163549610567},{\"RMSE\":0.4046222757773129},{\"RMSE\":0.4040228594076476},{\"RMSE\":0.4032275624423948},{\"RMSE\":0.4024617614584357},{\"RMSE\":0.401850562863716},{\"RMSE\":0.40123237402779455},{\"RMSE\":0.40055405643956715},{\"RMSE\":0.4000935362275281},{\"RMSE\":0.3994199980026856},{\"RMSE\":0.39860786867661685},{\"RMSE\":0.3979871527199249},{\"RMSE\":0.39707790510727486},{\"RMSE\":0.39620030846825627},{\"RMSE\":0.39544814176801335},{\"RMSE\":0.3946890929319454},{\"RMSE\":0.3935839941922686},{\"RMSE\":0.39267610992506713}],\"test_best_error\":[]}}"
    },
  "oblivious_trees":
    [
      {
        "leaf_values":
          [
            0.18056417413863735,
            0,
            0.59386763062303205,
            0.75216055889626754,
            -0.1245398201871209,
            0,
            0.29710897540739561,
            0.66111711219157032,
            0,
            0,
            0,
            0.95025487365805994,
            0,
            0,
            0,
            1.0888546714862291,
            -0.35286441681853803,
            0,
            0.014622955258451203,
            0.29841564873484777,
            -0.44510214051771224,
            0,
            -0.1178786518306294,
            0.28200329834269705,
            0,
            0,
            0,
            0.51997865103984142,
            0,
            0,
            0,
            0.76345070316866126,
            -0.071148346761467973,
            0,
            0.31295861210711223,
            0.71733958221092842,
            -0.32335098129080869,
            0,
            -0.079729991853405416,
            0.30586545951458849,
            0,
            0,
            0,
            1.000051655493905,
            0,
            0,
            0,
            0.97002534941321472,
            -0.3974729353326083,
            0,
            -0.21549581809151805,
            0.11274966955970862,
            -0.47279395549482289,
            0,
            -0.27364071703529613,
            -0.030882108941401729,
            0,
            0,
            0,
            0.46459079628204036,
            0,
            0,
            0,
            0.2348078982249352
          ],
        "leaf_weights":
          [
            267,
            0,
            313,
            127,
            280,
            0,
            307,
            163,
            0,
            0,
            0,
            30,
            0,
            0,
            0,
            80,
            256,
            0,
            113,
            14,
            373,
            0,
            269,
            107,
            0,
            0,
            0,
            4,
            0,
            0,
            0,
            11,
            1568,
            0,
            1336,
            490,
            4957,
            0,
            4029,
            2395,
            0,
            0,
            0,
            131,
            0,
            0,
            0,
            776,
            487,
            0,
            148,
            31,
            757,
            0,
            583,
            221,
            0,
            0,
            0,
            6,
            0,
            0,
            0,
            11
          ],
        "splits":
          [
            {
              "border":4.9554500579833984,
              "float_feature_index":0,
              "split_index":42,
              "split_type":"FloatFeature"
            },
            {
              "border":3.2491998672485352,
              "float_feature_index":0,
              "split_index":26,
              "split_type":"FloatFeature"
            },
            {
              "border":2.4435436725616455,
              "float_feature_index":5,
              "split_index":221,
              "split_type":"FloatFeature"
            },
            {
              "border":7.2744503021240234,
              "float_feature_index":0,
              "split_index":52,
              "split_type":"FloatFeature"
            },
            {
              "border":37.955001831054688,
              "float_feature_index":6,
              "split_index":314,
              "split_type":"FloatFeature"
            },
            {
              "border":-122.20500183105469,
              "float_feature_index":7,
              "split_index":338,
              "split_type":"FloatFeature"
            }
          ]
      },
      {
        "leaf_values":
          [
            0.0037480605282436139,
            0,
            0.15321542340700178,
            0,
            -0.08822431674853963,
            0,
            0.027200299598349489,
            0,
            0.076381762620487528,
            0,
            0.47509243054150591,
            0,
            -0.11320110228793795,
            0,
            -0.0074756967644556225,
            0,
            -0.21606226987842747,
            0,
            0.091958472257006874,
            0,
            -0.30153399338649961,
            0,
            -0.14720237481515833,
            0,
            -0.05287067236377388,
            0,
            0.36559505159940597,
            0,
            -0.28447577937742097,
            0,
            -0.05111298401676713,
            0,
            0,
            0,
            0.12918845520292802,
            0,
            0,
            0,
            0.008747553280861034,
            0.014922244155938787,
            0,
            0,
            0.78577168421044163,
            0,
            0,
            0,
            0.0021572093263114256,
            -0.28273963475351799,
            0,
            0,
            0.20797508722071484,
            0.40930186078159153,
            0,
            0,
            -0.0032835784158314826,
            0.35357698672281723,
            0,
            0,
            0.65084734446133963,
            0.76342070043315657,
            0,
            0,
            0.13636867428161586,
            0.61991328656141975
          ],
        "leaf_weights":
          [
            182,
            0,
            166,
            0,
            667,
            0,
            247,
            0,
            171,
            0,
            86,
            0,
            969,
            0,
            213,
            0,
            293,
            0,
            302,
            0,
            1841,
            0,
            2658,
            0,
            130,
            0,
            270,
            0,
            1874,
            0,
            2509,
            0,
            0,
            0,
            41,
            0,
            0,
            0,
            25,
            2,
            0,
            0,
            27,
            0,
            0,
            0,
            23,
            2,
            0,
            0,
            205,
            58,
            0,
            0,
            2827,
            1631,
            0,
            0,
            189,
            56,
            0,
            0,
            2145,
            831
          ],
        "splits":
          [
            {
              "border":5.8310003280639648,
              "float_feature_index":0,
              "split_index":47,
              "split_type":"FloatFeature"
            },
            {
              "border":2.7287998199462891,
              "float_feature_index":0,
              "split_index":16,
              "split_type":"FloatFeature"
            },
            {
              "border":2.093332052230835,
              "float_feature_index":5,
              "split_index":208,
              "split_type":"FloatFeature"
            },
            {
              "border":30.5,
              "float_feature_index":1,
              "split_index":75,
              "split_type":"FloatFeature"
            },
            {
              "border":3.9860286712646484,
              "float_feature_index":2,
              "split_index":99,
              "split_type":"FloatFeature"
            },
            {
              "border":4.0072498321533203,
              "float_feature_index":0,
              "split_index":34,
              "split_type":"FloatFeature"
            }
          ]
      },
      {
        "leaf_values":
          [
            0.13807368142616072,
            0,
            0.26130951607544117,
            0,
            -0.037342303384397729,
            0,
            0.0030080920436412304,
            0,
            0,
            0,
            0.32862568752765836,
            0.51601614629368153,
            0,
            0,
            0.045310238086165251,
            0.40678327782850188,
            -0.18635346656717547,
            0,
            -0.028883060952423052,
            0,
            -0.26835491217160051,
            0,
            -0.13406899371549946,
            0,
            0,
            0,
            0.1534834755947061,
            0.33906998753828904,
            0,
            0,
            -0.020969377381615785,
            0.30091180726736644,
            -0.18519121214416534,
            0,
            -0.061273723259212251,
            0,
            -0.21096545182328696,
            0,
            -0.12337531830398098,
            0,
            0,
            0,
            0.055051619077131311,
            0.3231497164170764,
            0,
            0,
            -0.083341787077340523,
            0.1627111037293944,
            -0.32241671678250422,
            0,
            -0.37490088893846091,
            0,
            -0.27028651328428388,
            0,
            -0.38635923978726971,
            0,
            0,
            0,
            -0.43954157480679185,
            0,
            0,
            0,
            -0.33802419986863974,
            0
          ],
        "leaf_weights":
          [
            246,
            0,
            1125,
            0,
            1017,
            0,
            1413,
            0,
            0,
            0,
            759,
            274,
            0,
            0,
            795,
            281,
            1151,
            0,
            2456,
            0,
            1093,
            0,
            1717,
            0,
            0,
            0,
            1088,
            323,
            0,
            0,
            1223,
            379,
            398,
            0,
            996,
            0,
            507,
            0,
            1274,
            0,
            0,
            0,
            511,
            141,
            0,
            0,
            1011,
            376,
            17,
            0,
            17,
            0,
            8,
            0,
            30,
            0,
            0,
            0,
            10,
            0,
            0,
            0,
            4,
            0
          ],
        "splits":
          [
            {
              "border":6.3754997253417969,
              "float_feature_index":0,
              "split_index":49,
              "split_type":"FloatFeature"
            },
            {
              "border":2.4175000190734863,
              "float_feature_index":0,
              "split_index":10,
              "split_type":"FloatFeature"
            },
            {
              "border":2.7586708068847656,
              "float_feature_index":5,
              "split_index":230,
              "split_type":"FloatFeature"
            },
            {
              "border":4.1798496246337891,
              "float_feature_index":0,
              "split_index":36,
              "split_type":"FloatFeature"
            },
            {
              "border":34.694999694824219,
              "float_feature_index":6,
              "split_index":286,
              "split_type":"FloatFeature"
            },
            {
              "border":-118.02499389648438,
              "float_feature_index":7,
              "split_index":385,
              "split_type":"FloatFeature"
            }
          ]
      },
      {
        "leaf_values":
          [
            -0.046224774810468154,
            0,
            -0.075929928371710698,
            0,
            -0.083350950451429692,
            0,
            -0.076869803164723194,
            0,
            0.11243034448694086,
            0,
            -0.0989964963520647,
            0,
            -0.073775491580820904,
            0,
            -0.077339244989788586,
            0,
            0.46189502742816535,
            0,
            0.002126258565615258,
            0,
            -0.099640085438523207,
            0,
            -0.13711270655219926,
            0,
            0.22983817191889008,
            0,
            -0.085265497182324346,
            0,
            -0.1012902850711821,
            0,
            -0.15057839817438007,
            0,
            -0.020923208882092807,
            -0.03543909672176513,
            -0.041286615951764027,
            0.10659421608325098,
            0.033927203333779396,
            0.15278092910415719,
            -0.054331734681422092,
            -0.054781328762102101,
            0.047931216249458813,
            0.081093621824614895,
            -0.096332430767867613,
            0.063291704651496805,
            -0.035350346910106828,
            -0.062231821958741163,
            -0.095179915358549305,
            -0.076687491136041563,
            0.34074670580348998,
            0.37562270382874541,
            0.11635652866968414,
            0.24027419677676903,
            0.099430571980689497,
            0.29050189560387873,
            -0.15426002457255558,
            -0.041408527956750547,
            0.088770203561686412,
            0.21310649144964353,
            -0.064808619746884816,
            0.066953625495390731,
            0.0014698420343030032,
            0.14890251345964806,
            -0.16233130705445034,
            -0.031141936486434683
          ],
        "leaf_weights":
          [
            18,
            0,
            1347,
            0,
            217,
            0,
            540,
            0,
            4,
            0,
            687,
            0,
            24,
            0,
            73,
            0,
            217,
            0,
            3182,
            0,
            365,
            0,
            854,
            0,
            76,
            0,
            3136,
            0,
            62,
            0,
            240,
            0,
            12,
            11,
            994,
            479,
            86,
            21,
            277,
            52,
            5,
            3,
            662,
            554,
            16,
            9,
            141,
            61,
            281,
            106,
            2358,
            1210,
            137,
            42,
            275,
            60,
            92,
            6,
            1206,
            360,
            18,
            2,
            54,
            8
          ],
        "splits":
          [
            {
              "border":5.5928497314453125,
              "float_feature_index":0,
              "split_index":46,
              "split_type":"FloatFeature"
            },
            {
              "border":-122.32499694824219,
              "float_feature_index":7,
              "split_index":335,
              "split_type":"FloatFeature"
            },
            {
              "border":37.915000915527344,
              "float_feature_index":6,
              "split_index":312,
              "split_type":"FloatFeature"
            },
            {
              "border":3.0441794395446777,
              "float_feature_index":5,
              "split_index":237,
              "split_type":"FloatFeature"
            },
            {
              "border":20.5,
              "float_feature_index":1,
              "split_index":68,
              "split_type":"FloatFeature"
            },
            {
              "border":3.6626999378204346,
              "float_feature_index":0,
              "split_index":31,
              "split_type":"FloatFeature"
            }
          ]
      },
      {
        "leaf_values":
          [
            0,
            0,
            0,
            0,
            0.049682690814922117,
            0.32868030882148552,
            0,
            0,
            0,
            0,
            0,
            0,
            0,
            0,
            0,
            0,
            0,
            0,
            0,
            0,
            0,
            0,
            0,
            0,
            0,
            0,
            0,
            0,
            0,
            0,
            0,
            0,
            0.25421936041948578,
            0,
            0,
            0,
            -0.066232044498474904,
            -0.11031024485725539,
            0,
            0,
            0.16149703498083767,
            0.31869191924396351,
            0,
            0,
            -0.2802967982940851,
            -0.40988904719778946,
            0,
            0,
            0,
            0,
            0,
            0,
            0,
            0,
            0,
            0,
            0.016830438178561384,
            0.29270040855261648,
            -0.088453938928820627,
            0.28692333825831817,
            -0.23108756567733121,
            0,
            -0.27724881060529633,
            0
          ],
        "leaf_weights":
          [
            0,
            0,
            0,
            0,
            5153,
            173,
            0,
            0,
            0,
            0,
            0,
            0,
            0,
            0,
            0,
            0,
            0,
            0,
            0,
            0,
            0,
            0,
            0,
            0,
            0,
            0,
            0,
            0,
            0,
            0,
            0,
            0,
            13,
            0,
            0,
            0,
            2804,
            6,
            0,
            0,
            2388,
            133,
            0,
            0,
            1289,
            6,
            0,
            0,
            0,
            0,
            0,
            0,
            0,
            0,
            0,
            0,
            5140,
            126,
            3200,
            40,
            103,
            0,
            66,
            0
          ],
        "splits":
          [
            {
              "border":8.5947494506835938,
              "float_feature_index":0,
              "split_index":55,
              "split_type":"FloatFeature"
            },
            {
              "border":-117.69499969482422,
              "float_feature_index":7,
              "split_index":396,
              "split_type":"FloatFeature"
            },
            {
              "border":34.625,
              "float_feature_index":6,
              "split_index":285,
              "split_type":"FloatFeature"
            },
            {
              "border":-120.06500244140625,
              "float_feature_index":7,
              "split_index":358,
              "split_type":"FloatFeature"
            },
            {
              "border":-118.32499694824219,
              "float_feature_index":7,
              "split_index":374,
              "split_type":"FloatFeature"
            },
            {
              "border":-121.73500061035156,
              "float_feature_index":7,
              "split_index":346,
              "split_type":"FloatFeature"
            }
          ]
      },
      {
        "leaf_values":
          [
            0,
            0,
            0,
            0,
            0,
            0,
            0,
            0,
            0,
            0,
            0,
            0,
            0,
            0,
            0,
            0,
            0.010972814634993609,
            0.054179340569334565,
            -0.16462413925244074,
            -0.155954714663081,
            0.15099194834950003,
            0.18927090681119776,
            0,
            0,
            0,
            0,
            0,
            0,
            0,
            0,
            0,
            0,
            0.083916162289966109,
            0.16751708303497317,
            0,
            0,
            0.08212755269073839,
            0.22324976251486511,
            0,
            0,
            -0.11309014832966933,
            -0.071503069071430878,
            0,
            0,
            0.071645600138722065,
            -0.018403326782260841,
            0,
            0,
            -0.071848938600410694,
            0.0002420214239061048,
            -0.065260479123942866,
            -0.098370008344700013,
            0.086891010493779633,
            0.16132452006363507,
            0,
            0,
            -0.10311708972818494,
            -0.1686660506925991,
            0,
            0,
            0,
            0.0229534356001397,
            0,
            0
          ],
        "leaf_weights":
          [
            0,
            0,
            0,
            0,
            0,
            0,
            0,
            0,
            0,
            0,
            0,
            0,
            0,
            0,
            0,
            0,
            1498,
            3615,
            119,
            481,
            119,
            141,
            0,
            0,
            0,
            0,
            0,
            0,
            0,
            0,
            0,
            0,
            295,
            892,
            0,
            0,
            40,
            63,
            0,
            0,
            362,
            819,
            0,
            0,
            6,
            8,
            0,
            0,
            3289,
            8103,
            4,
            116,
            132,
            216,
            0,
            0,
            19,
            302,
            0,
            0,
            0,
            1,
            0,
            0
          ],
        "splits":
          [
            {
              "border":1.0122437477111816,
              "float_feature_index":3,
              "split_index":138,
              "split_type":"FloatFeature"
            },
            {
              "border":39.264999389648438,
              "float_feature_index":6,
              "split_index":326,
              "split_type":"FloatFeature"
            },
            {
              "border":7.9130001068115234,
              "float_feature_index":0,
              "split_index":54,
              "split_type":"FloatFeature"
            },
            {
              "border":-117.14500427246094,
              "float_feature_index":7,
              "split_index":407,
              "split_type":"FloatFeature"
            },
            {
              "border":33.715000152587891,
              "float_feature_index":6,
              "split_index":261,
              "split_type":"FloatFeature"
            },
            {
              "border":-121.43499755859375,
              "float_feature_index":7,
              "split_index":349,
              "split_type":"FloatFeature"
            }
          ]
      },
      {
        "leaf_values":
          [
            0,
            0.13926733154994994,
            0,
            0,
            0,
            0,
            0,
            0,
            0,
            0.061583887412410207,
            0,
            0,
            0,
            0,
            0,
            0,
            0,
            0.20998496515337817,
            0,
            0,
            0,
            0,
            0,
            0,
            0,
            -0.1179459537287639,
            0,
            0,
            0,
            0,
            0,
            0,
            0,
            0,
            0,
            0,
            0,
            0,
            0,
            0,
            0,
            0,
            0,
            0,
            0,
            0,
            0,
            0,
            0,
            0.09627692925251076,
            0,
            0,
            0.2492166806602446,
            -0.074752067365191383,
            -0.0021471903230717041,
            -0.075584637670315799,
            0,
            -0.049482444404967137,
            0,
            0,
            0,
            -0.037404574474983784,
            0,
            0
          ],
        "leaf_weights":
          [
            0,
            38,
            0,
            0,
            0,
            0,
            0,
            0,
            0,
            1546,
            0,
            0,
            0,
            0,
            0,
            0,
            0,
            523,
            0,
            0,
            0,
            0,
            0,
            0,
            0,
            1471,
            0,
            0,
            0,
            0,
            0,
            0,
            0,
            0,
            0,
            0,
            0,
            0,
            0,
            0,
            0,
            0,
            0,
            0,
            0,
            0,
            0,
            0,
            0,
            1273,
            0,
            0,
            948,
            2938,
            8589,
            585,
            0,
            867,
            0,
            0,
            0,
            1862,
            0,
            0
          ],
        "splits":
          [
            {
              "border":34.174999237060547,
              "float_feature_index":6,
              "split_index":280,
              "split_type":"FloatFeature"
            },
            {
              "border":-118.36500549316406,
              "float_feature_index":7,
              "split_index":372,
              "split_type":"FloatFeature"
            },
            {
              "border":-121.5050048828125,
              "float_feature_index":7,
              "split_index":348,
              "split_type":"FloatFeature"
            },
            {
              "border":37.614997863769531,
              "float_feature_index":6,
              "split_index":301,
              "split_type":"FloatFeature"
            },
            {
              "border":-122.39500427246094,
              "float_feature_index":7,
              "split_index":333,
              "split_type":"FloatFeature"
            },
            {
              "border":-122.05500030517578,
              "float_feature_index":7,
              "split_index":339,
              "split_type":"FloatFeature"
            }
          ]
      },
      {
        "leaf_values":
          [
            0.022589913378196044,
            0.035481868907084345,
            0.2032553221068629,
            0.10037705311463395,
            -0.045651409297140184,
            -0.087611015724464433,
            -0.062202847985709742,
            -0.075918269855854176,
            -0.084986431962854533,
            -0.015513685042146385,
            0.14257115895689329,
            0.10739240699581891,
            -0.024778954952352869,
            -0.047793672789796952,
            0.036988486332627586,
            -0.028062366426321855,
            -0.14610608440615847,
            -0.057020345121822247,
            0.080290274478934651,
            -0.12219240691315861,
            -0.035295903262225668,
            -0.074634582242525463,
            -0.013323521781808869,
            0.00084310601581477965,
            0,
            -0.0035613857180343128,
            0.39459697207751349,
            0.10933086887484102,
            0.022821866731107296,
            -0.14249171234144004,
            0.13902615320869877,
            0.051847863242380172,
            -0.12755305220998192,
            0,
            -0.013294515156135259,
            0.060191085596636898,
            0.008642212589292448,
            -0.10935029927015523,
            -0.068658998783781178,
            -0.046238682051927438,
            -0.14892731570538617,
            -0.0083361058236898836,
            0.045393384153488439,
            0,
            -0.062439006697484707,
            -0.074405903319372899,
            -0.014529752962168985,
            -0.049928165157968003,
            0.026457087188271281,
            0.42966234469289522,
            -0.042781478360013482,
            0.03739117541619829,
            -0.095115713734798879,
            0,
            -0.0022560399760486911,
            -0.081979734879636904,
            -0.12112140416089313,
            -0.078844957456976936,
            0.013374921236685012,
            0,
            -0.035546537314171546,
            0.018015355867933503,
            0.099710249393640288,
            -0.010023163919464397
          ],
        "leaf_weights":
          [
            17,
            19,
            102,
            88,
            32,
            76,
            702,
            829,
            19,
            21,
            53,
            46,
            1081,
            558,
            7499,
            3112,
            3,
            3,
            11,
            8,
            6,
            5,
            39,
            24,
            0,
            2,
            7,
            1,
            46,
            8,
            290,
            50,
            5,
            0,
            18,
            8,
            48,
            12,
            595,
            127,
            2,
            2,
            9,
            0,
            446,
            79,
            3281,
            481,
            3,
            6,
            19,
            2,
            3,
            0,
            75,
            19,
            2,
            2,
            5,
            0,
            64,
            10,
            514,
            46
          ],
        "splits":
          [
            {
              "border":3.2265005111694336,
              "float_feature_index":5,
              "split_index":238,
              "split_type":"FloatFeature"
            },
            {
              "border":0.97509241104125977,
              "float_feature_index":3,
              "split_index":136,
              "split_type":"FloatFeature"
            },
            {
              "border":3.0425007343292236,
              "float_feature_index":2,
              "split_index":92,
              "split_type":"FloatFeature"
            },
            {
              "border":2.1096999645233154,
              "float_feature_index":0,
              "split_index":9,
              "split_type":"FloatFeature"
            },
            {
              "border":51.5,
              "float_feature_index":1,
              "split_index":86,
              "split_type":"FloatFeature"
            },
            {
              "border":37.575000762939453,
              "float_feature_index":6,
              "split_index":299,
              "split_type":"FloatFeature"
            }
          ]
      },
      {
        "leaf_values":
          [
            0,
            0,
            0.14209904520136826,
            0,
            0,
            0,
            0.0025373168224326215,
            0,
            0.55988241770567926,
            0.0054702865074434072,
            0.077140028025109122,
            -0.088314024307543204,
            0,
            0,
            -0.10064026975077194,
            -0.067204812451569049,
            0,
            0,
            0.11630214815767456,
            0,
            0,
            0,
            0.015821574858885776,
            0,
            0,
            -0.030434258311188376,
            -0.0015641377473761089,
            -0.081117276568725291,
            0,
            0,
            -0.056679634456641828,
            -0.049421799699773131,
            0,
            0,
            0.12123309041131841,
            0,
            0,
            0,
            0.015601912393132401,
            0,
            0.38608136796373022,
            0.022995445754391837,
            0.037562383373400024,
            -0.140216715828062,
            0,
            0,
            -0.23617077595098901,
            -0.14911727596724741,
            0,
            0,
            0.17696509577646446,
            0,
            0,
            0,
            -0.051195920577213623,
            0,
            0,
            -0.046324525560701414,
            -0.05890804169038974,
            -0.11306481023100007,
            0,
            0,
            -0.14658123159150616,
            -0.062440501284036887
          ],
        "leaf_weights":
          [
            0,
            0,
            4,
            0,
            0,
            0,
            3350,
            0,
            7,
            723,
            1765,
            580,
            0,
            0,
            670,
            63,
            0,
            0,
            2,
            0,
            0,
            0,
            468,
            0,
            0,
            156,
            1280,
            192,
            0,
            0,
            249,
            5,
            0,
            0,
            6,
            0,
            0,
            0,
            4119,
            0,
            50,
            952,
            3762,
            570,
            0,
            0,
            359,
            31,
            0,
            0,
            3,
            0,
            0,
            0,
            347,
            0,
            0,
            125,
            649,
            135,
            0,
            0,
            17,
            1
          ],
        "splits":
          [
            {
              "border":-117.76499938964844,
              "float_feature_index":7,
              "split_index":394,
              "split_type":"FloatFeature"
            },
            {
              "border":33.614997863769531,
              "float_feature_index":6,
              "split_index":257,
              "split_type":"FloatFeature"
            },
            {
              "border":34.514999389648438,
              "float_feature_index":6,
              "split_index":284,
              "split_type":"FloatFeature"
            },
            {
              "border":-119.85499572753906,
              "float_feature_index":7,
              "split_index":359,
              "split_type":"FloatFeature"
            },
            {
              "border":3.509580135345459,
              "float_feature_index":5,
              "split_index":241,
              "split_type":"FloatFeature"
            },
            {
              "border":3.3677000999450684,
              "float_feature_index":0,
              "split_index":29,
              "split_type":"FloatFeature"
            }
          ]
      },
      {
        "leaf_values":
          [
            0.1490528257347781,
            0,
            -0.00017809237209448901,
            0,
            -0.029295043071835912,
            0,
            0.046208277229710389,
            0,
            -0.085954445384872347,
            -0.10293671865648606,
            0.0037902921473198219,
            -0.024776184223384057,
            -0.11704676659234643,
            -0.10028203383946814,
            0.12538987047034819,
            -0.058798356766232698,
            0.062449536355290033,
            0,
            -0.022244801359424363,
            0,
            0.12052103852818039,
            0,
            0.044818592965609798,
            0,
            -0.23369410839311069,
            -0.2603802700444221,
            -0.032481970298585731,
            -0.13977660894452607,
            -0.22815319412119958,
            -0.20247156002284242,
            0.040734761783751176,
            -0.074580884202569572,
            0,
            0,
            0,
            0,
            0,
            0,
            0,
            0,
            0,
            0,
            0,
            0,
            0,
            0,
            0,
            0,
            -0.087547977009067454,
            0,
            -0.19995553286284562,
            0,
            0.034445973481442495,
            0,
            0.021940496854664371,
            0,
            0,
            0,
            0.039021197993584014,
            0,
            0,
            0,
            0,
            0
          ],
        "leaf_weights":
          [
            311,
            0,
            7322,
            0,
            18,
            0,
            277,
            0,
            92,
            179,
            287,
            153,
            27,
            33,
            57,
            33,
            741,
            0,
            7413,
            0,
            144,
            0,
            2237,
            0,
            20,
            33,
            77,
            29,
            13,
            6,
            78,
            11,
            0,
            0,
            0,
            0,
            0,
            0,
            0,
            0,
            0,
            0,
            0,
            0,
            0,
            0,
            0,
            0,
            12,
            0,
            99,
            0,
            45,
            0,
            892,
            0,
            0,
            0,
            1,
            0,
            0,
            0,
            0,
            0
          ],
        "splits":
          [
            {
              "border":39.764999389648438,
              "float_feature_index":6,
              "split_index":327,
              "split_type":"FloatFeature"
            },
            {
              "border":-122.36500549316406,
              "float_feature_index":7,
              "split_index":334,
              "split_type":"FloatFeature"
            },
            {
              "border":6.3300662040710449,
              "float_feature_index":2,
              "split_index":121,
              "split_type":"FloatFeature"
            },
            {
              "border":38.885002136230469,
              "float_feature_index":6,
              "split_index":324,
              "split_type":"FloatFeature"
            },
            {
              "border":3.2227001190185547,
              "float_feature_index":0,
              "split_index":24,
              "split_type":"FloatFeature"
            },
            {
              "border":7.2744503021240234,
              "float_feature_index":0,
              "split_index":52,
              "split_type":"FloatFeature"
            }
          ]
      },
      {
        "leaf_values":
          [
            0.025077070449928338,
            0.16169566051166437,
            0.20948063618450041,
            0.024422906713420067,
            -0.11682054268613339,
            0,
            0.055003858526083263,
            0,
            0.18262725287616335,
            -0.1318037797596219,
            0.041188419104290636,
            -0.15868008056950039,
            -0.10577692050107614,
            0,
            0.046700896997178547,
            -0.11509411885214223,
            -0.30482293332580984,
            0,
            0.08933338318367734,
            0,
            -0.070742081881608201,
            0,
            -0.11091299012744156,
            0,
            -0.17361173725695475,
            -0.25855277578196389,
            0.035318989674288301,
            -0.16111366583898706,
            -0.084477134978558896,
            0,
            -0.1881293793886594,
            -0.083081212833105655,
            -0.047175623086036594,
            0,
            0.019094932788500753,
            -0.089085171385031692,
            0.0631989028018244,
            0,
            -0.019537498828396033,
            -0.11595666616466885,
            -0.031680405215778189,
            -0.19831123153468519,
            0.01718482454895635,
            -0.13359703481781193,
            0.12818916800387126,
            0,
            -0.016338699806694251,
            -0.14839926264413994,
            -0.13516692159550273,
            0,
            -0.0097938756840007645,
            -0.22080293164008657,
            0.1616672231515818,
            0,
            -0.021802188406552001,
            -0.25670983160135835,
            0.017530905264749014,
            -0.039633654689831349,
            0.03215024127363527,
            -0.21609375121930582,
            0.27092695857520283,
            0,
            0.021584192303357091,
            -0.1312443310184509
          ],
        "leaf_weights":
          [
            13,
            1,
            38,
            2,
            17,
            0,
            95,
            0,
            22,
            3,
            87,
            20,
            14,
            0,
            86,
            3,
            8,
            0,
            56,
            0,
            9,
            0,
            80,
            0,
            11,
            1,
            83,
            1,
            7,
            0,
            64,
            1,
            136,
            0,
            1219,
            35,
            115,
            0,
            2422,
            10,
            243,
            5,
            2241,
            86,
            216,
            0,
            2593,
            33,
            64,
            0,
            3125,
            8,
            86,
            0,
            3335,
            6,
            169,
            3,
            2035,
            22,
            147,
            0,
            1562,
            2
          ],
        "splits":
          [
            {
              "border":-116.40499877929688,
              "float_feature_index":7,
              "split_index":412,
              "split_type":"FloatFeature"
            },
            {
              "border":1.929201602935791,
              "float_feature_index":5,
              "split_index":202,
              "split_type":"FloatFeature"
            },
            {
              "border":27.5,
              "float_feature_index":1,
              "split_index":73,
              "split_type":"FloatFeature"
            },
            {
              "border":1.0532870292663574,
              "float_feature_index":3,
              "split_index":144,
              "split_type":"FloatFeature"
            },
            {
              "border":3.4146499633789063,
              "float_feature_index":0,
              "split_index":30,
              "split_type":"FloatFeature"
            },
            {
              "border":270.5,
              "float_feature_index":4,
              "split_index":170,
              "split_type":"FloatFeature"
            }
          ]
      },
      {
        "leaf_values":
          [
            0,
            0,
            -0.04305656427999361,
            0,
            0,
            0,
            0,
            0,
            0,
            0,
            -0.021990720761212657,
            0,
            0,
            0,
            0,
            0,
            0,
            0,
            0.06323005709875959,
            0,
            0.089437304738795451,
            -0.026011381579764046,
            -0.058639736044352381,
            0.004849798764938699,
            0,
            0,
            0.030677230441368133,
            0,
            0.035244079200514422,
            -0.026711172931510586,
            -0.25194622012867035,
            -0.040434283207855512,
            0,
            0,
            0.011957191512556118,
            0,
            0,
            0,
            0,
            0,
            0,
            0,
            0.0010232864187311411,
            0,
            0,
            0,
            0,
            0,
            0,
            0,
            -0.050888565338713644,
            0,
            0,
            0,
            -0.092401295982863021,
            0,
            0,
            0,
            -0.079103700495525828,
            0,
            0,
            0,
            -0.19529415245602572,
            0
          ],
        "leaf_weights":
          [
            0,
            0,
            1750,
            0,
            0,
            0,
            0,
            0,
            0,
            0,
            518,
            0,
            0,
            0,
            0,
            0,
            0,
            0,
            3139,
            0,
            1078,
            3491,
            1553,
            1210,
            0,
            0,
            953,
            0,
            865,
            764,
            92,
            147,
            0,
            0,
            2678,
            0,
            0,
            0,
            0,
            0,
            0,
            0,
            1044,
            0,
            0,
            0,
            0,
            0,
            0,
            0,
            1118,
            0,
            0,
            0,
            26,
            0,
            0,
            0,
            206,
            0,
            0,
            0,
            8,
            0
          ],
        "splits":
          [
            {
              "border":37.645000457763672,
              "float_feature_index":6,
              "split_index":302,
              "split_type":"FloatFeature"
            },
            {
              "border":-121.36500549316406,
              "float_feature_index":7,
              "split_index":351,
              "split_type":"FloatFeature"
            },
            {
              "border":35.275001525878906,
              "float_feature_index":6,
              "split_index":287,
              "split_type":"FloatFeature"
            },
            {
              "border":4.9554500579833984,
              "float_feature_index":0,
              "split_index":42,
              "split_type":"FloatFeature"
            },
            {
              "border":33.985000610351563,
              "float_feature_index":6,
              "split_index":272,
              "split_type":"FloatFeature"
            },
            {
              "border":-117.9949951171875,
              "float_feature_index":7,
              "split_index":387,
              "split_type":"FloatFeature"
            }
          ]
      },
      {
        "leaf_values":
          [
            0.013765686392273189,
            0,
            0,
            0,
            0.39157884193877712,
            0,
            0,
            0,
            0.11021827703727813,
            0.064343022295633392,
            0,
            0,
            0.11208364012154072,
            0.0039365611102002967,
            0,
            0,
            0,
            0,
            0,
            0,
            0.018881982242822393,
            -0.056467508773549599,
            0,
            0,
            0,
            0,
            0,
            0,
            -0.011219712567433135,
            0.030283593000734781,
            0,
            0,
            -0.27494421208567688,
            0,
            -0.066193490331081725,
            -0.028033777901967587,
            0.049433139235124587,
            0,
            -0.10317654707516223,
            0,
            0.029030832332223953,
            0.064526829596113666,
            -0.0088456945293774753,
            0.052513903546506549,
            -0.034114369898465578,
            0.065060498557106675,
            -0.07905658871260246,
            -0.1217918128552048,
            0,
            0,
            0,
            0,
            -0.053942393622952604,
            0,
            0,
            0,
            0,
            0,
            0,
            0,
            0.027893932627911226,
            0.11768208400509794,
            -0.092067847022165264,
            -0.083811234565946816
          ],
        "leaf_weights":
          [
            1,
            0,
            0,
            0,
            42,
            0,
            0,
            0,
            109,
            17,
            0,
            0,
            659,
            58,
            0,
            0,
            0,
            0,
            0,
            0,
            151,
            7,
            0,
            0,
            0,
            0,
            0,
            0,
            9420,
            1280,
            0,
            0,
            61,
            0,
            39,
            1,
            10,
            0,
            1,
            0,
            1800,
            263,
            1699,
            262,
            2637,
            109,
            218,
            47,
            0,
            0,
            0,
            0,
            9,
            0,
            0,
            0,
            0,
            0,
            0,
            0,
            1219,
            134,
            306,
            81
          ],
        "splits":
          [
            {
              "border":6.8688335418701172,
              "float_feature_index":2,
              "split_index":126,
              "split_type":"FloatFeature"
            },
            {
              "border":-117.38499450683594,
              "float_feature_index":7,
              "split_index":400,
              "split_type":"FloatFeature"
            },
            {
              "border":33.875,
              "float_feature_index":6,
              "split_index":268,
              "split_type":"FloatFeature"
            },
            {
              "border":1.6086692810058594,
              "float_feature_index":5,
              "split_index":197,
              "split_type":"FloatFeature"
            },
            {
              "border":34.084999084472656,
              "float_feature_index":6,
              "split_index":276,
              "split_type":"FloatFeature"
            },
            {
              "border":-118.34500122070313,
              "float_feature_index":7,
              "split_index":373,
              "split_type":"FloatFeature"
            }
          ]
      },
      {
        "leaf_values":
          [
            -0.012000682940087971,
            0,
            -0.044287969609620226,
            0,
            0.14264351085457694,
            0,
            -0.015541650417320375,
            0,
            -0.09752154264099952,
            -0.11808026520246162,
            0.0032674624108077689,
            -0.065334270118039273,
            -0.042849134861109479,
            -0.077458613740633633,
            -0.068726538528688222,
            -0.039727361421273817,
            0.28589560991604407,
            0,
            -0.010182425525232634,
            0,
            0.27108321896959764,
            0,
            0.044965424584162583,
            0,
            0.23418635240095509,
            -0.082722277775302597,
            -0.1979088221671601,
            0.036482039396734368,
            0.21741747409369025,
            -0.077542297712077948,
            -0.15787572259944654,
            -0.022135437833222082,
            0.047001020350137063,
            0,
            0.029688042445266922,
            0,
            0.11309050973422294,
            0,
            0.013828940625408122,
            0,
            0.12905776603003835,
            -0.048286092098739061,
            0.040768081395100825,
            0.063290838755929141,
            0.06028426667056172,
            0.041548327889510878,
            -0.022447378470374101,
            0.017966353888427267,
            0.065815639434640624,
            0,
            -0.01556691067665357,
            0,
            0.14516638612300575,
            0,
            0.0048270132766507204,
            0,
            0.08753418266012844,
            -0.078023771869284622,
            -0.077140012935295738,
            0.0038993312184097692,
            -0.036800922532565006,
            -0.048059792213422756,
            -0.068235954617578184,
            -0.034602761272083449
          ],
        "leaf_weights":
          [
            18,
            0,
            771,
            0,
            14,
            0,
            945,
            0,
            62,
            73,
            17,
            62,
            58,
            85,
            39,
            79,
            21,
            0,
            2717,
            0,
            9,
            0,
            1821,
            0,
            139,
            125,
            43,
            28,
            62,
            84,
            35,
            29,
            11,
            0,
            865,
            0,
            15,
            0,
            2203,
            0,
            29,
            116,
            71,
            44,
            106,
            301,
            227,
            82,
            3,
            0,
            3540,
            0,
            5,
            0,
            4785,
            0,
            39,
            158,
            122,
            33,
            54,
            250,
            190,
            55
          ],
        "splits":
          [
            {
              "border":-117.16500091552734,
              "float_feature_index":7,
              "split_index":406,
              "split_type":"FloatFeature"
            },
            {
              "border":33.514999389648438,
              "float_feature_index":6,
              "split_index":255,
              "split_type":"FloatFeature"
            },
            {
              "border":1070.5,
              "float_feature_index":4,
              "split_index":185,
              "split_type":"FloatFeature"
            },
            {
              "border":-117.55500030517578,
              "float_feature_index":7,
              "split_index":398,
              "split_type":"FloatFeature"
            },
            {
              "border":20.5,
              "float_feature_index":1,
              "split_index":68,
              "split_type":"FloatFeature"
            },
            {
              "border":2.600522518157959,
              "float_feature_index":5,
              "split_index":226,
              "split_type":"FloatFeature"
            }
          ]
      },
      {
        "leaf_values":
          [
            -0.042312431015687935,
            0.041025451278852494,
            0,
            0,
            -0.25012962701325842,
            -0.2725597189461057,
            0,
            0,
            -0.056042632800371556,
            0.082461945638145004,
            0,
            0,
            -0.21192994054543104,
            0.09160668726058005,
            0,
            0,
            0.16417766824937927,
            0.10042982314579221,
            -0.088078637734363571,
            -0.14481265554009454,
            -0.2949903747505947,
            0,
            -0.21727754217349929,
            0,
            0.18748685731500939,
            0,
            0,
            0,
            -0.055834963240742788,
            0.011802639266990383,
            0,
            0,
            0.0027571401963884545,
            0.017445041380858051,
            0,
            0,
            0.012967826724266489,
            0.046509478448062941,
            0,
            0,
            -0.0059393316816627739,
            0.093965270680590823,
            0,
            0,
            -0.070338925204287375,
            0.06514940190821733,
            0,
            0,
            -0.0021245530876570933,
            0.019073994317292762,
            -0.1042375845915833,
            -0.11002623198171796,
            -0.024180608442730456,
            0.010945958502487209,
            -0.14992338751565934,
            0,
            0.026013190696006609,
            0.052114385299221869,
            -0.072540841810318446,
            0.0082172310720630588,
            -0.023944051056315762,
            0.1098558514703263,
            -0.23845166107998184,
            0
          ],
        "leaf_weights":
          [
            79,
            24,
            0,
            0,
            17,
            8,
            0,
            0,
            30,
            5,
            0,
            0,
            12,
            4,
            0,
            0,
            25,
            5,
            6,
            4,
            2,
            0,
            1,
            0,
            13,
            0,
            0,
            0,
            3,
            3,
            0,
            0,
            6921,
            146,
            0,
            0,
            1775,
            153,
            0,
            0,
            3965,
            21,
            0,
            0,
            713,
            134,
            0,
            0,
            2613,
            83,
            55,
            8,
            732,
            79,
            2,
            0,
            2193,
            9,
            80,
            1,
            591,
            121,
            4,
            0
          ],
        "splits":
          [
            {
              "border":7.9057903289794922,
              "float_feature_index":2,
              "split_index":129,
              "split_type":"FloatFeature"
            },
            {
              "border":-116.1300048828125,
              "float_feature_index":7,
              "split_index":413,
              "split_type":"FloatFeature"
            },
            {
              "border":5.0429000854492188,
              "float_feature_index":0,
              "split_index":43,
              "split_type":"FloatFeature"
            },
            {
              "border":3.0090720653533936,
              "float_feature_index":5,
              "split_index":236,
              "split_type":"FloatFeature"
            },
            {
              "border":-118.16500091552734,
              "float_feature_index":7,
              "split_index":382,
              "split_type":"FloatFeature"
            },
            {
              "border":101.5,
              "float_feature_index":4,
              "split_index":166,
              "split_type":"FloatFeature"
            }
          ]
      },
      {
        "leaf_values":
          [
            0.15724139817743965,
            0.0088024852194343445,
            -0.18792544185990148,
            -0.1157013598251041,
            -0.0012907462202423057,
            -0.012248038006422173,
            -0.10360810497610792,
            -0.044901095009634143,
            0.060511682301265558,
            0.061058394554457496,
            -0.042531369782338437,
            0.051199396083022618,
            0.040108302632649188,
            0.063701262138200682,
            -0.05461110719972128,
            -0.0074871253154986731,
            0.1776715443270169,
            -0.11464794013790582,
            0,
            -0.11661876080813538,
            -0.079250585211291538,
            0.060206828335549016,
            -0.11051237302108141,
            -0.072561716208266624,
            -0.075390993671286821,
            -0.015045501622490192,
            -0.020992519903872447,
            0.045101422773820864,
            -0.0047553193061424977,
            -0.017052572524593485,
            -0.049762939264481831,
            -0.12253425604173723,
            -0.018557860935928781,
            0.095291198249477474,
            -0.19241672132335536,
            0.04084096619235477,
            0.0069381755063919548,
            -0.0067829274038782965,
            0.038128843046294776,
            0.07496219490516684,
            0.029719143124074154,
            0.037119119787370848,
            -0.050295512369464848,
            0.00043086289306513401,
            0.0074087307348324766,
            0.021860028098382153,
            -0.025295655055263502,
            0.012831519966426263,
            -0.053785096918459244,
            0.010249389042258654,
            -0.14234949816449044,
            -0.081359803248062565,
            -0.027280493566517745,
            0.022461233106086144,
            -0.16757363750238963,
            -0.084503798167157043,
            0.03840690981592064,
            0.1301117879471706,
            -0.031201335318898585,
            0.039176046046870423,
            0.011838715800026572,
            0.055643670182854307,
            -0.055148251045132567,
            -0.048292970175256598
          ],
        "leaf_weights":
          [
            14,
            11,
            20,
            6,
            215,
            54,
            137,
            72,
            19,
            13,
            17,
            51,
            346,
            119,
            230,
            295,
            1,
            6,
            0,
            2,
            13,
            17,
            3,
            8,
            3,
            5,
            2,
            9,
            37,
            19,
            10,
            26,
            88,
            7,
            146,
            26,
            1316,
            64,
            1231,
            263,
            286,
            47,
            329,
            691,
            5010,
            430,
            3755,
            3680,
            16,
            10,
            9,
            15,
            171,
            32,
            35,
            22,
            56,
            12,
            41,
            103,
            444,
            64,
            189,
            272
          ],
        "splits":
          [
            {
              "border":5.8094110488891602,
              "float_feature_index":2,
              "split_index":114,
              "split_type":"FloatFeature"
            },
            {
              "border":3.2491998672485352,
              "float_feature_index":0,
              "split_index":26,
              "split_type":"FloatFeature"
            },
            {
              "border":12.5,
              "float_feature_index":1,
              "split_index":63,
              "split_type":"FloatFeature"
            },
            {
              "border":2.3293976783752441,
              "float_feature_index":5,
              "split_index":217,
              "split_type":"FloatFeature"
            },
            {
              "border":-117.17500305175781,
              "float_feature_index":7,
              "split_index":405,
              "split_type":"FloatFeature"
            },
            {
              "border":475.5,
              "float_feature_index":4,
              "split_index":174,
              "split_type":"FloatFeature"
            }
          ]
      },
      {
        "leaf_values":
          [
            -0.13903286096178788,
            0,
            0.065614812423557753,
            0,
            -0.011653262674915621,
            0,
            0.0061108814439063399,
            0,
            -0.030770515003714003,
            -0.05215416239696246,
            -0.081188931447854884,
            -0.084006682626967394,
            0.016017884256839754,
            -0.0068407064225420745,
            -0.0040507824851788443,
            -0.044747871256848239,
            0,
            0,
            0,
            0,
            0,
            0,
            0,
            0,
            0,
            0,
            0,
            0,
            0,
            0,
            0,
            0,
            -5.3266604943885026e-05,
            0,
            0.11642280939322812,
            0,
            0.0087644532388360969,
            0,
            0.068326144255992205,
            0,
            0.061744566418557308,
            -0.074838292450987567,
            0.022726278578259627,
            -0.059519150735949086,
            -0.0011627720844353637,
            -0.040261377966565183,
            0.023189483878815233,
            -0.048184203688440709,
            -0.045459065779871917,
            0,
            -0.03640706303711827,
            0,
            -0.012249284065805673,
            0,
            0.0087597889146311322,
            0,
            0.14787096032777933,
            -0.10153017652448078,
            0.10042544510492338,
            -0.13750829125930641,
            -0.073110354682860146,
            -0.038780447060808361,
            -0.079188923115169105,
            -0.077131492119364334
          ],
        "leaf_weights":
          [
            18,
            0,
            2,
            0,
            2684,
            0,
            799,
            0,
            132,
            25,
            58,
            18,
            719,
            47,
            230,
            24,
            0,
            0,
            0,
            0,
            0,
            0,
            0,
            0,
            0,
            0,
            0,
            0,
            0,
            0,
            0,
            0,
            66,
            0,
            4,
            0,
            5897,
            0,
            966,
            0,
            234,
            65,
            99,
            51,
            991,
            60,
            249,
            34,
            244,
            0,
            28,
            0,
            4565,
            0,
            609,
            0,
            363,
            39,
            82,
            10,
            1008,
            13,
            194,
            13
          ],
        "splits":
          [
            {
              "border":40.075000762939453,
              "float_feature_index":6,
              "split_index":328,
              "split_type":"FloatFeature"
            },
            {
              "border":1.1289025545120239,
              "float_feature_index":3,
              "split_index":151,
              "split_type":"FloatFeature"
            },
            {
              "border":-122.40499877929688,
              "float_feature_index":7,
              "split_index":332,
              "split_type":"FloatFeature"
            },
            {
              "border":37.754997253417969,
              "float_feature_index":6,
              "split_index":305,
              "split_type":"FloatFeature"
            },
            {
              "border":34.5,
              "float_feature_index":1,
              "split_index":78,
              "split_type":"FloatFeature"
            },
            {
              "border":17.5,
              "float_feature_index":1,
              "split_index":66,
              "split_type":"FloatFeature"
            }
          ]
      },
      {
        "leaf_values":
          [
            0.21487394131655541,
            0,
            0.11396159938964016,
            0,
            -0.056170003562454635,
            0,
            -0.13152249773516345,
            0,
            0.11878719695024527,
            -0.084426221379726801,
            0.027817851176311414,
            0,
            -0.0090033674382383622,
            -0.089412285011823869,
            -0.20223663237840203,
            0,
            0.025533651984377796,
            0,
            0.11951764387804244,
            0,
            -0.032645291670031218,
            0,
            -0.019414237339196699,
            0,
            0.0061374896246648662,
            -0.032260887154478841,
            0.019394995126317625,
            0,
            -0.00086017503206279071,
            -0.089660550809599115,
            0.037027632109538113,
            0,
            -0.10067460360574911,
            0,
            -0.15144331499638672,
            0,
            -0.08716093261534727,
            0,
            0.090058438890718934,
            0,
            0.014207301267001638,
            0,
            -0.053502585174377559,
            0,
            -0.011189716246646905,
            0,
            -0.092972232232994889,
            0,
            -0.00330336425517846,
            0,
            -0.0030792307742571723,
            0,
            0.011623849573138426,
            0,
            0.1867035334291838,
            0,
            0.012238823984549565,
            0,
            0.0090390733928391812,
            0,
            -0.022291835767324228,
            0,
            -0.079384403196245942,
            0
          ],
